network "Bayes" {
// written by aGrUM 1.13.0
}

variable deeplearning {
   type discrete[2] {0, 1};
}

variable computationalfluiddynamics {
   type discrete[2] {0, 1};
}

variable textvisualization {
   type discrete[2] {0, 1};
}

variable sonification {
   type discrete[2] {0, 1};
}

variable augmentedreality {
   type discrete[2] {0, 1};
}

variable pathology {
   type discrete[2] {0, 1};
}

variable lifescience {
   type discrete[2] {0, 1};
}

variable socialmedia {
   type discrete[2] {0, 1};
}

variable userinterfacesandhumancomputerinteraction {
   type discrete[2] {0, 1};
}

variable interaction {
   type discrete[2] {0, 1};
}

variable airtrafficcontrol {
   type discrete[2] {0, 1};
}

variable magneticresonanceimaging {
   type discrete[2] {0, 1};
}

variable multichannelprinting {
   type discrete[2] {0, 1};
}

variable visualization {
   type discrete[2] {0, 1};
}

variable selfdisclosure {
   type discrete[2] {0, 1};
}

variable privacy {
   type discrete[2] {0, 1};
}

variable collisionlessplasma {
   type discrete[2] {0, 1};
}

variable thresholdconcepts {
   type discrete[2] {0, 1};
}

variable humancenteredcomputing {
   type discrete[2] {0, 1};
}

variable datavisualization {
   type discrete[2] {0, 1};
}

variable technologyteachers {
   type discrete[2] {0, 1};
}

variable shock {
   type discrete[2] {0, 1};
}

variable medicalvisualization {
   type discrete[2] {0, 1};
}

variable planeestimation {
   type discrete[2] {0, 1};
}

variable interactiondesign {
   type discrete[2] {0, 1};
}

variable dotgain {
   type discrete[2] {0, 1};
}

variable videoseethrough {
   type discrete[2] {0, 1};
}

variable geovisualanalytics {
   type discrete[2] {0, 1};
}

variable machinelearning {
   type discrete[2] {0, 1};
}

variable shading {
   type discrete[2] {0, 1};
}

variable computerscience {
   type discrete[2] {0, 1};
}

variable authenticlearning {
   type discrete[2] {0, 1};
}

variable haptics {
   type discrete[2] {0, 1};
}

variable multiplelinkedviews {
   type discrete[2] {0, 1};
}

variable scientificvisualization {
   type discrete[2] {0, 1};
}

variable visualizationapplicationdomains {
   type discrete[2] {0, 1};
}

variable relativisticjet {
   type discrete[2] {0, 1};
}

variable computersandsociety {
   type discrete[2] {0, 1};
}

variable virtualreality {
   type discrete[2] {0, 1};
}

variable visualizationdesignandevaluationmethods {
   type discrete[2] {0, 1};
}

variable digitaldesign {
   type discrete[2] {0, 1};
}

variable colorprediction {
   type discrete[2] {0, 1};
}

variable picsimulation {
   type discrete[2] {0, 1};
}

variable plasmashock {
   type discrete[2] {0, 1};
}

variable torchlight {
   type discrete[2] {0, 1};
}

variable multimediainformationsystems {
   type discrete[2] {0, 1};
}

variable calibration {
   type discrete[2] {0, 1};
}

variable cancer {
   type discrete[2] {0, 1};
}

variable scienceeducation {
   type discrete[2] {0, 1};
}

variable humanautomationcollaboration {
   type discrete[2] {0, 1};
}

variable automation {
   type discrete[2] {0, 1};
}

variable wholeslideimaging {
   type discrete[2] {0, 1};
}

variable volumerendering {
   type discrete[2] {0, 1};
}

variable poseestimation {
   type discrete[2] {0, 1};
}

variable multimediasystems {
   type discrete[2] {0, 1};
}

variable evolution {
   type discrete[2] {0, 1};
}

variable informationvisualization {
   type discrete[2] {0, 1};
}

variable visualanalytics {
   type discrete[2] {0, 1};
}

variable shadowing {
   type discrete[2] {0, 1};
}

variable digitalpathology {
   type discrete[2] {0, 1};
}

variable userperspective {
   type discrete[2] {0, 1};
}

variable evaluation {
   type discrete[2] {0, 1};
}

variable technologyeducation {
   type discrete[2] {0, 1};
}

variable graininess {
   type discrete[2] {0, 1};
}

variable activeillumination {
   type discrete[2] {0, 1};
}

variable ellipses {
   type discrete[2] {0, 1};
}

variable storytelling {
   type discrete[2] {0, 1};
}

probability (deeplearning) {
   table 0.449993 0.550007;
}
probability (computationalfluiddynamics) {
   table 0.473229 0.526771;
}
probability (textvisualization | informationvisualization) {
   (0) 0.546195 0.453805;
   (1) 0.852208 0.147792;
}
probability (sonification) {
   table 0.524585 0.475415;
}
probability (augmentedreality) {
   table 0.954115 0.0458846;
}
probability (pathology | cancer) {
   (0) 0.242564 0.757436;
   (1) 0.585526 0.414474;
}
probability (lifescience) {
   table 0.76259 0.23741;
}
probability (socialmedia | machinelearning) {
   (0) 0.527006 0.472994;
   (1) 0.0116351 0.988365;
}
probability (userinterfacesandhumancomputerinteraction | multimediasystems, multimediainformationsystems, computersandsociety, computerscience) {
   (0, 0, 0, 0) 0.497095 0.502905;
   (1, 0, 0, 0) 0.451488 0.548512;
   (0, 1, 0, 0) 0.775385 0.224615;
   (1, 1, 0, 0) 0.913167 0.0868331;
   (0, 0, 1, 0) 0.62252 0.37748;
   (1, 0, 1, 0) 0.752828 0.247172;
   (0, 1, 1, 0) 0.464888 0.535112;
   (1, 1, 1, 0) 0.826369 0.173631;
   (0, 0, 0, 1) 0.550668 0.449332;
   (1, 0, 0, 1) 0.547054 0.452946;
   (0, 1, 0, 1) 0.323097 0.676903;
   (1, 1, 0, 1) 0.599735 0.400265;
   (0, 0, 1, 1) 0.277557 0.722443;
   (1, 0, 1, 1) 0.475297 0.524703;
   (0, 1, 1, 1) 0.0603192 0.939681;
   (1, 1, 1, 1) 0.431292 0.568708;
}
probability (interaction | informationvisualization) {
   (0) 0.329123 0.670877;
   (1) 0.788819 0.211181;
}
probability (airtrafficcontrol) {
   table 0.202434 0.797566;
}
probability (magneticresonanceimaging | computationalfluiddynamics) {
   (0) 0.503022 0.496978;
   (1) 0.191193 0.808807;
}
probability (multichannelprinting | graininess) {
   (0) 0.0203054 0.979695;
   (1) 0.660523 0.339477;
}
probability (visualization | visualanalytics, humancenteredcomputing, scientificvisualization, sonification, evolution, haptics, interaction, datavisualization, machinelearning, informationvisualization, virtualreality, lifescience, scienceeducation) {
   (0, 0, 0, 0, 0, 0, 0, 0, 0, 0, 0, 0, 0) 0.546332 0.453668;
   (1, 0, 0, 0, 0, 0, 0, 0, 0, 0, 0, 0, 0) 0.469189 0.530811;
   (0, 1, 0, 0, 0, 0, 0, 0, 0, 0, 0, 0, 0) 0.0687286 0.931271;
   (1, 1, 0, 0, 0, 0, 0, 0, 0, 0, 0, 0, 0) 0.812746 0.187254;
   (0, 0, 1, 0, 0, 0, 0, 0, 0, 0, 0, 0, 0) 0.506158 0.493842;
   (1, 0, 1, 0, 0, 0, 0, 0, 0, 0, 0, 0, 0) 0.59675 0.40325;
   (0, 1, 1, 0, 0, 0, 0, 0, 0, 0, 0, 0, 0) 0.107623 0.892377;
   (1, 1, 1, 0, 0, 0, 0, 0, 0, 0, 0, 0, 0) 0.690874 0.309126;
   (0, 0, 0, 1, 0, 0, 0, 0, 0, 0, 0, 0, 0) 0.725489 0.274511;
   (1, 0, 0, 1, 0, 0, 0, 0, 0, 0, 0, 0, 0) 0.468142 0.531858;
   (0, 1, 0, 1, 0, 0, 0, 0, 0, 0, 0, 0, 0) 0.60103 0.39897;
   (1, 1, 0, 1, 0, 0, 0, 0, 0, 0, 0, 0, 0) 0.132603 0.867397;
   (0, 0, 1, 1, 0, 0, 0, 0, 0, 0, 0, 0, 0) 0.742876 0.257124;
   (1, 0, 1, 1, 0, 0, 0, 0, 0, 0, 0, 0, 0) 0.787305 0.212695;
   (0, 1, 1, 1, 0, 0, 0, 0, 0, 0, 0, 0, 0) 0.691114 0.308886;
   (1, 1, 1, 1, 0, 0, 0, 0, 0, 0, 0, 0, 0) 0.489871 0.510129;
   (0, 0, 0, 0, 1, 0, 0, 0, 0, 0, 0, 0, 0) 0.634265 0.365735;
   (1, 0, 0, 0, 1, 0, 0, 0, 0, 0, 0, 0, 0) 0.89483 0.10517;
   (0, 1, 0, 0, 1, 0, 0, 0, 0, 0, 0, 0, 0) 0.672427 0.327573;
   (1, 1, 0, 0, 1, 0, 0, 0, 0, 0, 0, 0, 0) 0.360071 0.639929;
   (0, 0, 1, 0, 1, 0, 0, 0, 0, 0, 0, 0, 0) 0.623092 0.376908;
   (1, 0, 1, 0, 1, 0, 0, 0, 0, 0, 0, 0, 0) 0.0442193 0.955781;
   (0, 1, 1, 0, 1, 0, 0, 0, 0, 0, 0, 0, 0) 0.485897 0.514103;
   (1, 1, 1, 0, 1, 0, 0, 0, 0, 0, 0, 0, 0) 0.644821 0.355179;
   (0, 0, 0, 1, 1, 0, 0, 0, 0, 0, 0, 0, 0) 0.453525 0.546475;
   (1, 0, 0, 1, 1, 0, 0, 0, 0, 0, 0, 0, 0) 0.45742 0.54258;
   (0, 1, 0, 1, 1, 0, 0, 0, 0, 0, 0, 0, 0) 0.260741 0.739259;
   (1, 1, 0, 1, 1, 0, 0, 0, 0, 0, 0, 0, 0) 0.54804 0.45196;
   (0, 0, 1, 1, 1, 0, 0, 0, 0, 0, 0, 0, 0) 0.404084 0.595916;
   (1, 0, 1, 1, 1, 0, 0, 0, 0, 0, 0, 0, 0) 0.701696 0.298304;
   (0, 1, 1, 1, 1, 0, 0, 0, 0, 0, 0, 0, 0) 0.485545 0.514455;
   (1, 1, 1, 1, 1, 0, 0, 0, 0, 0, 0, 0, 0) 0.240416 0.759584;
   (0, 0, 0, 0, 0, 1, 0, 0, 0, 0, 0, 0, 0) 0.35779 0.64221;
   (1, 0, 0, 0, 0, 1, 0, 0, 0, 0, 0, 0, 0) 0.356053 0.643947;
   (0, 1, 0, 0, 0, 1, 0, 0, 0, 0, 0, 0, 0) 0.803613 0.196387;
   (1, 1, 0, 0, 0, 1, 0, 0, 0, 0, 0, 0, 0) 0.536773 0.463227;
   (0, 0, 1, 0, 0, 1, 0, 0, 0, 0, 0, 0, 0) 0.77462 0.22538;
   (1, 0, 1, 0, 0, 1, 0, 0, 0, 0, 0, 0, 0) 0.392994 0.607006;
   (0, 1, 1, 0, 0, 1, 0, 0, 0, 0, 0, 0, 0) 0.193184 0.806816;
   (1, 1, 1, 0, 0, 1, 0, 0, 0, 0, 0, 0, 0) 0.448631 0.551369;
   (0, 0, 0, 1, 0, 1, 0, 0, 0, 0, 0, 0, 0) 0.283614 0.716386;
   (1, 0, 0, 1, 0, 1, 0, 0, 0, 0, 0, 0, 0) 0.284399 0.715601;
   (0, 1, 0, 1, 0, 1, 0, 0, 0, 0, 0, 0, 0) 0.932192 0.0678077;
   (1, 1, 0, 1, 0, 1, 0, 0, 0, 0, 0, 0, 0) 0.317815 0.682185;
   (0, 0, 1, 1, 0, 1, 0, 0, 0, 0, 0, 0, 0) 0.359906 0.640094;
   (1, 0, 1, 1, 0, 1, 0, 0, 0, 0, 0, 0, 0) 0.170188 0.829812;
   (0, 1, 1, 1, 0, 1, 0, 0, 0, 0, 0, 0, 0) 0.316978 0.683022;
   (1, 1, 1, 1, 0, 1, 0, 0, 0, 0, 0, 0, 0) 0.303 0.697;
   (0, 0, 0, 0, 1, 1, 0, 0, 0, 0, 0, 0, 0) 0.830893 0.169107;
   (1, 0, 0, 0, 1, 1, 0, 0, 0, 0, 0, 0, 0) 0.380726 0.619274;
   (0, 1, 0, 0, 1, 1, 0, 0, 0, 0, 0, 0, 0) 0.0968183 0.903182;
   (1, 1, 0, 0, 1, 1, 0, 0, 0, 0, 0, 0, 0) 0.867725 0.132275;
   (0, 0, 1, 0, 1, 1, 0, 0, 0, 0, 0, 0, 0) 0.674502 0.325498;
   (1, 0, 1, 0, 1, 1, 0, 0, 0, 0, 0, 0, 0) 0.270108 0.729892;
   (0, 1, 1, 0, 1, 1, 0, 0, 0, 0, 0, 0, 0) 0.479602 0.520398;
   (1, 1, 1, 0, 1, 1, 0, 0, 0, 0, 0, 0, 0) 0.467551 0.532449;
   (0, 0, 0, 1, 1, 1, 0, 0, 0, 0, 0, 0, 0) 0.3182 0.6818;
   (1, 0, 0, 1, 1, 1, 0, 0, 0, 0, 0, 0, 0) 0.651043 0.348957;
   (0, 1, 0, 1, 1, 1, 0, 0, 0, 0, 0, 0, 0) 0.393486 0.606514;
   (1, 1, 0, 1, 1, 1, 0, 0, 0, 0, 0, 0, 0) 0.184608 0.815392;
   (0, 0, 1, 1, 1, 1, 0, 0, 0, 0, 0, 0, 0) 0.618894 0.381106;
   (1, 0, 1, 1, 1, 1, 0, 0, 0, 0, 0, 0, 0) 0.362814 0.637186;
   (0, 1, 1, 1, 1, 1, 0, 0, 0, 0, 0, 0, 0) 0.276505 0.723495;
   (1, 1, 1, 1, 1, 1, 0, 0, 0, 0, 0, 0, 0) 0.427611 0.572389;
   (0, 0, 0, 0, 0, 0, 1, 0, 0, 0, 0, 0, 0) 0.193617 0.806383;
   (1, 0, 0, 0, 0, 0, 1, 0, 0, 0, 0, 0, 0) 0.442323 0.557677;
   (0, 1, 0, 0, 0, 0, 1, 0, 0, 0, 0, 0, 0) 0.406034 0.593966;
   (1, 1, 0, 0, 0, 0, 1, 0, 0, 0, 0, 0, 0) 0.559154 0.440846;
   (0, 0, 1, 0, 0, 0, 1, 0, 0, 0, 0, 0, 0) 0.895288 0.104712;
   (1, 0, 1, 0, 0, 0, 1, 0, 0, 0, 0, 0, 0) 0.447801 0.552199;
   (0, 1, 1, 0, 0, 0, 1, 0, 0, 0, 0, 0, 0) 0.036744 0.963256;
   (1, 1, 1, 0, 0, 0, 1, 0, 0, 0, 0, 0, 0) 0.122874 0.877126;
   (0, 0, 0, 1, 0, 0, 1, 0, 0, 0, 0, 0, 0) 0.272674 0.727326;
   (1, 0, 0, 1, 0, 0, 1, 0, 0, 0, 0, 0, 0) 0.642167 0.357833;
   (0, 1, 0, 1, 0, 0, 1, 0, 0, 0, 0, 0, 0) 0.281902 0.718098;
   (1, 1, 0, 1, 0, 0, 1, 0, 0, 0, 0, 0, 0) 0.204464 0.795536;
   (0, 0, 1, 1, 0, 0, 1, 0, 0, 0, 0, 0, 0) 0.316403 0.683597;
   (1, 0, 1, 1, 0, 0, 1, 0, 0, 0, 0, 0, 0) 0.182344 0.817656;
   (0, 1, 1, 1, 0, 0, 1, 0, 0, 0, 0, 0, 0) 0.514484 0.485516;
   (1, 1, 1, 1, 0, 0, 1, 0, 0, 0, 0, 0, 0) 0.360962 0.639038;
   (0, 0, 0, 0, 1, 0, 1, 0, 0, 0, 0, 0, 0) 0.900552 0.0994479;
   (1, 0, 0, 0, 1, 0, 1, 0, 0, 0, 0, 0, 0) 0.124109 0.875891;
   (0, 1, 0, 0, 1, 0, 1, 0, 0, 0, 0, 0, 0) 0.514799 0.485201;
   (1, 1, 0, 0, 1, 0, 1, 0, 0, 0, 0, 0, 0) 0.472115 0.527885;
   (0, 0, 1, 0, 1, 0, 1, 0, 0, 0, 0, 0, 0) 0.19607 0.80393;
   (1, 0, 1, 0, 1, 0, 1, 0, 0, 0, 0, 0, 0) 0.196746 0.803254;
   (0, 1, 1, 0, 1, 0, 1, 0, 0, 0, 0, 0, 0) 0.555233 0.444767;
   (1, 1, 1, 0, 1, 0, 1, 0, 0, 0, 0, 0, 0) 0.601348 0.398652;
   (0, 0, 0, 1, 1, 0, 1, 0, 0, 0, 0, 0, 0) 0.642543 0.357457;
   (1, 0, 0, 1, 1, 0, 1, 0, 0, 0, 0, 0, 0) 0.0309849 0.969015;
   (0, 1, 0, 1, 1, 0, 1, 0, 0, 0, 0, 0, 0) 0.39665 0.60335;
   (1, 1, 0, 1, 1, 0, 1, 0, 0, 0, 0, 0, 0) 0.724116 0.275884;
   (0, 0, 1, 1, 1, 0, 1, 0, 0, 0, 0, 0, 0) 0.284974 0.715026;
   (1, 0, 1, 1, 1, 0, 1, 0, 0, 0, 0, 0, 0) 0.944809 0.0551909;
   (0, 1, 1, 1, 1, 0, 1, 0, 0, 0, 0, 0, 0) 0.760103 0.239897;
   (1, 1, 1, 1, 1, 0, 1, 0, 0, 0, 0, 0, 0) 0.30449 0.69551;
   (0, 0, 0, 0, 0, 1, 1, 0, 0, 0, 0, 0, 0) 0.300142 0.699858;
   (1, 0, 0, 0, 0, 1, 1, 0, 0, 0, 0, 0, 0) 0.949881 0.0501191;
   (0, 1, 0, 0, 0, 1, 1, 0, 0, 0, 0, 0, 0) 0.497598 0.502402;
   (1, 1, 0, 0, 0, 1, 1, 0, 0, 0, 0, 0, 0) 0.714477 0.285523;
   (0, 0, 1, 0, 0, 1, 1, 0, 0, 0, 0, 0, 0) 0.643617 0.356383;
   (1, 0, 1, 0, 0, 1, 1, 0, 0, 0, 0, 0, 0) 0.121149 0.878851;
   (0, 1, 1, 0, 0, 1, 1, 0, 0, 0, 0, 0, 0) 0.566882 0.433118;
   (1, 1, 1, 0, 0, 1, 1, 0, 0, 0, 0, 0, 0) 0.295701 0.704299;
   (0, 0, 0, 1, 0, 1, 1, 0, 0, 0, 0, 0, 0) 0.219884 0.780116;
   (1, 0, 0, 1, 0, 1, 1, 0, 0, 0, 0, 0, 0) 0.752243 0.247757;
   (0, 1, 0, 1, 0, 1, 1, 0, 0, 0, 0, 0, 0) 0.0916012 0.908399;
   (1, 1, 0, 1, 0, 1, 1, 0, 0, 0, 0, 0, 0) 0.582987 0.417013;
   (0, 0, 1, 1, 0, 1, 1, 0, 0, 0, 0, 0, 0) 0.500841 0.499159;
   (1, 0, 1, 1, 0, 1, 1, 0, 0, 0, 0, 0, 0) 0.468377 0.531623;
   (0, 1, 1, 1, 0, 1, 1, 0, 0, 0, 0, 0, 0) 0.402331 0.597669;
   (1, 1, 1, 1, 0, 1, 1, 0, 0, 0, 0, 0, 0) 0.70046 0.29954;
   (0, 0, 0, 0, 1, 1, 1, 0, 0, 0, 0, 0, 0) 0.348051 0.651949;
   (1, 0, 0, 0, 1, 1, 1, 0, 0, 0, 0, 0, 0) 0.541753 0.458247;
   (0, 1, 0, 0, 1, 1, 1, 0, 0, 0, 0, 0, 0) 0.683309 0.316691;
   (1, 1, 0, 0, 1, 1, 1, 0, 0, 0, 0, 0, 0) 0.817874 0.182126;
   (0, 0, 1, 0, 1, 1, 1, 0, 0, 0, 0, 0, 0) 0.45159 0.54841;
   (1, 0, 1, 0, 1, 1, 1, 0, 0, 0, 0, 0, 0) 0.425913 0.574087;
   (0, 1, 1, 0, 1, 1, 1, 0, 0, 0, 0, 0, 0) 0.0716414 0.928359;
   (1, 1, 1, 0, 1, 1, 1, 0, 0, 0, 0, 0, 0) 0.629969 0.370031;
   (0, 0, 0, 1, 1, 1, 1, 0, 0, 0, 0, 0, 0) 0.150628 0.849372;
   (1, 0, 0, 1, 1, 1, 1, 0, 0, 0, 0, 0, 0) 0.396402 0.603598;
   (0, 1, 0, 1, 1, 1, 1, 0, 0, 0, 0, 0, 0) 0.17979 0.82021;
   (1, 1, 0, 1, 1, 1, 1, 0, 0, 0, 0, 0, 0) 0.449648 0.550352;
   (0, 0, 1, 1, 1, 1, 1, 0, 0, 0, 0, 0, 0) 0.86484 0.13516;
   (1, 0, 1, 1, 1, 1, 1, 0, 0, 0, 0, 0, 0) 0.384704 0.615296;
   (0, 1, 1, 1, 1, 1, 1, 0, 0, 0, 0, 0, 0) 0.424595 0.575405;
   (1, 1, 1, 1, 1, 1, 1, 0, 0, 0, 0, 0, 0) 0.988273 0.0117268;
   (0, 0, 0, 0, 0, 0, 0, 1, 0, 0, 0, 0, 0) 0.202113 0.797887;
   (1, 0, 0, 0, 0, 0, 0, 1, 0, 0, 0, 0, 0) 0.689117 0.310883;
   (0, 1, 0, 0, 0, 0, 0, 1, 0, 0, 0, 0, 0) 0.504043 0.495957;
   (1, 1, 0, 0, 0, 0, 0, 1, 0, 0, 0, 0, 0) 0.0220648 0.977935;
   (0, 0, 1, 0, 0, 0, 0, 1, 0, 0, 0, 0, 0) 0.068962 0.931038;
   (1, 0, 1, 0, 0, 0, 0, 1, 0, 0, 0, 0, 0) 0.739248 0.260752;
   (0, 1, 1, 0, 0, 0, 0, 1, 0, 0, 0, 0, 0) 0.441895 0.558105;
   (1, 1, 1, 0, 0, 0, 0, 1, 0, 0, 0, 0, 0) 0.253662 0.746338;
   (0, 0, 0, 1, 0, 0, 0, 1, 0, 0, 0, 0, 0) 0.984628 0.0153718;
   (1, 0, 0, 1, 0, 0, 0, 1, 0, 0, 0, 0, 0) 0.287299 0.712701;
   (0, 1, 0, 1, 0, 0, 0, 1, 0, 0, 0, 0, 0) 0.685837 0.314163;
   (1, 1, 0, 1, 0, 0, 0, 1, 0, 0, 0, 0, 0) 0.605407 0.394593;
   (0, 0, 1, 1, 0, 0, 0, 1, 0, 0, 0, 0, 0) 0.233012 0.766988;
   (1, 0, 1, 1, 0, 0, 0, 1, 0, 0, 0, 0, 0) 0.782089 0.217911;
   (0, 1, 1, 1, 0, 0, 0, 1, 0, 0, 0, 0, 0) 0.507677 0.492323;
   (1, 1, 1, 1, 0, 0, 0, 1, 0, 0, 0, 0, 0) 0.700957 0.299043;
   (0, 0, 0, 0, 1, 0, 0, 1, 0, 0, 0, 0, 0) 0.861179 0.138821;
   (1, 0, 0, 0, 1, 0, 0, 1, 0, 0, 0, 0, 0) 0.325384 0.674616;
   (0, 1, 0, 0, 1, 0, 0, 1, 0, 0, 0, 0, 0) 0.468025 0.531975;
   (1, 1, 0, 0, 1, 0, 0, 1, 0, 0, 0, 0, 0) 0.952231 0.047769;
   (0, 0, 1, 0, 1, 0, 0, 1, 0, 0, 0, 0, 0) 0.83979 0.16021;
   (1, 0, 1, 0, 1, 0, 0, 1, 0, 0, 0, 0, 0) 0.498987 0.501013;
   (0, 1, 1, 0, 1, 0, 0, 1, 0, 0, 0, 0, 0) 0.620404 0.379596;
   (1, 1, 1, 0, 1, 0, 0, 1, 0, 0, 0, 0, 0) 0.840666 0.159334;
   (0, 0, 0, 1, 1, 0, 0, 1, 0, 0, 0, 0, 0) 0.96921 0.0307902;
   (1, 0, 0, 1, 1, 0, 0, 1, 0, 0, 0, 0, 0) 0.583901 0.416099;
   (0, 1, 0, 1, 1, 0, 0, 1, 0, 0, 0, 0, 0) 0.406013 0.593987;
   (1, 1, 0, 1, 1, 0, 0, 1, 0, 0, 0, 0, 0) 0.388213 0.611787;
   (0, 0, 1, 1, 1, 0, 0, 1, 0, 0, 0, 0, 0) 0.864187 0.135813;
   (1, 0, 1, 1, 1, 0, 0, 1, 0, 0, 0, 0, 0) 0.403549 0.596451;
   (0, 1, 1, 1, 1, 0, 0, 1, 0, 0, 0, 0, 0) 0.558587 0.441413;
   (1, 1, 1, 1, 1, 0, 0, 1, 0, 0, 0, 0, 0) 0.470374 0.529626;
   (0, 0, 0, 0, 0, 1, 0, 1, 0, 0, 0, 0, 0) 0.851163 0.148837;
   (1, 0, 0, 0, 0, 1, 0, 1, 0, 0, 0, 0, 0) 0.426826 0.573174;
   (0, 1, 0, 0, 0, 1, 0, 1, 0, 0, 0, 0, 0) 0.498172 0.501828;
   (1, 1, 0, 0, 0, 1, 0, 1, 0, 0, 0, 0, 0) 0.408742 0.591258;
   (0, 0, 1, 0, 0, 1, 0, 1, 0, 0, 0, 0, 0) 0.156322 0.843678;
   (1, 0, 1, 0, 0, 1, 0, 1, 0, 0, 0, 0, 0) 0.183714 0.816286;
   (0, 1, 1, 0, 0, 1, 0, 1, 0, 0, 0, 0, 0) 0.48538 0.51462;
   (1, 1, 1, 0, 0, 1, 0, 1, 0, 0, 0, 0, 0) 0.60965 0.39035;
   (0, 0, 0, 1, 0, 1, 0, 1, 0, 0, 0, 0, 0) 0.705098 0.294902;
   (1, 0, 0, 1, 0, 1, 0, 1, 0, 0, 0, 0, 0) 0.617185 0.382815;
   (0, 1, 0, 1, 0, 1, 0, 1, 0, 0, 0, 0, 0) 0.877649 0.122351;
   (1, 1, 0, 1, 0, 1, 0, 1, 0, 0, 0, 0, 0) 0.546955 0.453045;
   (0, 0, 1, 1, 0, 1, 0, 1, 0, 0, 0, 0, 0) 0.461422 0.538578;
   (1, 0, 1, 1, 0, 1, 0, 1, 0, 0, 0, 0, 0) 0.790093 0.209907;
   (0, 1, 1, 1, 0, 1, 0, 1, 0, 0, 0, 0, 0) 0.517547 0.482453;
   (1, 1, 1, 1, 0, 1, 0, 1, 0, 0, 0, 0, 0) 0.467832 0.532168;
   (0, 0, 0, 0, 1, 1, 0, 1, 0, 0, 0, 0, 0) 0.936078 0.0639219;
   (1, 0, 0, 0, 1, 1, 0, 1, 0, 0, 0, 0, 0) 0.24597 0.75403;
   (0, 1, 0, 0, 1, 1, 0, 1, 0, 0, 0, 0, 0) 0.236304 0.763696;
   (1, 1, 0, 0, 1, 1, 0, 1, 0, 0, 0, 0, 0) 0.477976 0.522024;
   (0, 0, 1, 0, 1, 1, 0, 1, 0, 0, 0, 0, 0) 0.517351 0.482649;
   (1, 0, 1, 0, 1, 1, 0, 1, 0, 0, 0, 0, 0) 0.722149 0.277851;
   (0, 1, 1, 0, 1, 1, 0, 1, 0, 0, 0, 0, 0) 0.250232 0.749768;
   (1, 1, 1, 0, 1, 1, 0, 1, 0, 0, 0, 0, 0) 0.95033 0.0496701;
   (0, 0, 0, 1, 1, 1, 0, 1, 0, 0, 0, 0, 0) 0.569266 0.430734;
   (1, 0, 0, 1, 1, 1, 0, 1, 0, 0, 0, 0, 0) 0.739991 0.260009;
   (0, 1, 0, 1, 1, 1, 0, 1, 0, 0, 0, 0, 0) 0.725097 0.274903;
   (1, 1, 0, 1, 1, 1, 0, 1, 0, 0, 0, 0, 0) 0.540853 0.459147;
   (0, 0, 1, 1, 1, 1, 0, 1, 0, 0, 0, 0, 0) 0.556971 0.443029;
   (1, 0, 1, 1, 1, 1, 0, 1, 0, 0, 0, 0, 0) 0.710197 0.289803;
   (0, 1, 1, 1, 1, 1, 0, 1, 0, 0, 0, 0, 0) 0.715138 0.284862;
   (1, 1, 1, 1, 1, 1, 0, 1, 0, 0, 0, 0, 0) 0.467454 0.532546;
   (0, 0, 0, 0, 0, 0, 1, 1, 0, 0, 0, 0, 0) 0.511941 0.488059;
   (1, 0, 0, 0, 0, 0, 1, 1, 0, 0, 0, 0, 0) 0.95781 0.0421899;
   (0, 1, 0, 0, 0, 0, 1, 1, 0, 0, 0, 0, 0) 0.570284 0.429716;
   (1, 1, 0, 0, 0, 0, 1, 1, 0, 0, 0, 0, 0) 0.239343 0.760657;
   (0, 0, 1, 0, 0, 0, 1, 1, 0, 0, 0, 0, 0) 0.34153 0.65847;
   (1, 0, 1, 0, 0, 0, 1, 1, 0, 0, 0, 0, 0) 0.64411 0.35589;
   (0, 1, 1, 0, 0, 0, 1, 1, 0, 0, 0, 0, 0) 0.466994 0.533006;
   (1, 1, 1, 0, 0, 0, 1, 1, 0, 0, 0, 0, 0) 0.119616 0.880384;
   (0, 0, 0, 1, 0, 0, 1, 1, 0, 0, 0, 0, 0) 0.471076 0.528924;
   (1, 0, 0, 1, 0, 0, 1, 1, 0, 0, 0, 0, 0) 0.320257 0.679743;
   (0, 1, 0, 1, 0, 0, 1, 1, 0, 0, 0, 0, 0) 0.55062 0.44938;
   (1, 1, 0, 1, 0, 0, 1, 1, 0, 0, 0, 0, 0) 0.45766 0.54234;
   (0, 0, 1, 1, 0, 0, 1, 1, 0, 0, 0, 0, 0) 0.546039 0.453961;
   (1, 0, 1, 1, 0, 0, 1, 1, 0, 0, 0, 0, 0) 0.0303364 0.969664;
   (0, 1, 1, 1, 0, 0, 1, 1, 0, 0, 0, 0, 0) 0.598847 0.401153;
   (1, 1, 1, 1, 0, 0, 1, 1, 0, 0, 0, 0, 0) 0.0960335 0.903966;
   (0, 0, 0, 0, 1, 0, 1, 1, 0, 0, 0, 0, 0) 0.549812 0.450188;
   (1, 0, 0, 0, 1, 0, 1, 1, 0, 0, 0, 0, 0) 0.652039 0.347961;
   (0, 1, 0, 0, 1, 0, 1, 1, 0, 0, 0, 0, 0) 0.449603 0.550397;
   (1, 1, 0, 0, 1, 0, 1, 1, 0, 0, 0, 0, 0) 0.512932 0.487068;
   (0, 0, 1, 0, 1, 0, 1, 1, 0, 0, 0, 0, 0) 0.705311 0.294689;
   (1, 0, 1, 0, 1, 0, 1, 1, 0, 0, 0, 0, 0) 0.440817 0.559183;
   (0, 1, 1, 0, 1, 0, 1, 1, 0, 0, 0, 0, 0) 0.948596 0.0514044;
   (1, 1, 1, 0, 1, 0, 1, 1, 0, 0, 0, 0, 0) 0.224027 0.775973;
   (0, 0, 0, 1, 1, 0, 1, 1, 0, 0, 0, 0, 0) 0.711491 0.288509;
   (1, 0, 0, 1, 1, 0, 1, 1, 0, 0, 0, 0, 0) 0.703226 0.296774;
   (0, 1, 0, 1, 1, 0, 1, 1, 0, 0, 0, 0, 0) 0.170297 0.829703;
   (1, 1, 0, 1, 1, 0, 1, 1, 0, 0, 0, 0, 0) 0.983307 0.0166931;
   (0, 0, 1, 1, 1, 0, 1, 1, 0, 0, 0, 0, 0) 0.474794 0.525206;
   (1, 0, 1, 1, 1, 0, 1, 1, 0, 0, 0, 0, 0) 0.256972 0.743028;
   (0, 1, 1, 1, 1, 0, 1, 1, 0, 0, 0, 0, 0) 0.66859 0.33141;
   (1, 1, 1, 1, 1, 0, 1, 1, 0, 0, 0, 0, 0) 0.129416 0.870584;
   (0, 0, 0, 0, 0, 1, 1, 1, 0, 0, 0, 0, 0) 0.26549 0.73451;
   (1, 0, 0, 0, 0, 1, 1, 1, 0, 0, 0, 0, 0) 0.345713 0.654287;
   (0, 1, 0, 0, 0, 1, 1, 1, 0, 0, 0, 0, 0) 0.573273 0.426727;
   (1, 1, 0, 0, 0, 1, 1, 1, 0, 0, 0, 0, 0) 0.318019 0.681981;
   (0, 0, 1, 0, 0, 1, 1, 1, 0, 0, 0, 0, 0) 0.530587 0.469413;
   (1, 0, 1, 0, 0, 1, 1, 1, 0, 0, 0, 0, 0) 0.335344 0.664656;
   (0, 1, 1, 0, 0, 1, 1, 1, 0, 0, 0, 0, 0) 0.112874 0.887126;
   (1, 1, 1, 0, 0, 1, 1, 1, 0, 0, 0, 0, 0) 0.568079 0.431921;
   (0, 0, 0, 1, 0, 1, 1, 1, 0, 0, 0, 0, 0) 0.486255 0.513745;
   (1, 0, 0, 1, 0, 1, 1, 1, 0, 0, 0, 0, 0) 0.47173 0.52827;
   (0, 1, 0, 1, 0, 1, 1, 1, 0, 0, 0, 0, 0) 0.702686 0.297314;
   (1, 1, 0, 1, 0, 1, 1, 1, 0, 0, 0, 0, 0) 0.0933437 0.906656;
   (0, 0, 1, 1, 0, 1, 1, 1, 0, 0, 0, 0, 0) 0.441766 0.558234;
   (1, 0, 1, 1, 0, 1, 1, 1, 0, 0, 0, 0, 0) 0.372793 0.627207;
   (0, 1, 1, 1, 0, 1, 1, 1, 0, 0, 0, 0, 0) 0.48892 0.51108;
   (1, 1, 1, 1, 0, 1, 1, 1, 0, 0, 0, 0, 0) 0.319666 0.680334;
   (0, 0, 0, 0, 1, 1, 1, 1, 0, 0, 0, 0, 0) 0.752507 0.247493;
   (1, 0, 0, 0, 1, 1, 1, 1, 0, 0, 0, 0, 0) 0.170753 0.829247;
   (0, 1, 0, 0, 1, 1, 1, 1, 0, 0, 0, 0, 0) 0.208168 0.791832;
   (1, 1, 0, 0, 1, 1, 1, 1, 0, 0, 0, 0, 0) 0.603811 0.396189;
   (0, 0, 1, 0, 1, 1, 1, 1, 0, 0, 0, 0, 0) 0.951396 0.0486042;
   (1, 0, 1, 0, 1, 1, 1, 1, 0, 0, 0, 0, 0) 0.328917 0.671083;
   (0, 1, 1, 0, 1, 1, 1, 1, 0, 0, 0, 0, 0) 0.554639 0.445361;
   (1, 1, 1, 0, 1, 1, 1, 1, 0, 0, 0, 0, 0) 0.926125 0.0738753;
   (0, 0, 0, 1, 1, 1, 1, 1, 0, 0, 0, 0, 0) 0.390928 0.609072;
   (1, 0, 0, 1, 1, 1, 1, 1, 0, 0, 0, 0, 0) 0.0964961 0.903504;
   (0, 1, 0, 1, 1, 1, 1, 1, 0, 0, 0, 0, 0) 0.427442 0.572558;
   (1, 1, 0, 1, 1, 1, 1, 1, 0, 0, 0, 0, 0) 0.542322 0.457678;
   (0, 0, 1, 1, 1, 1, 1, 1, 0, 0, 0, 0, 0) 0.0561131 0.943887;
   (1, 0, 1, 1, 1, 1, 1, 1, 0, 0, 0, 0, 0) 0.902474 0.0975258;
   (0, 1, 1, 1, 1, 1, 1, 1, 0, 0, 0, 0, 0) 0.386609 0.613391;
   (1, 1, 1, 1, 1, 1, 1, 1, 0, 0, 0, 0, 0) 0.391229 0.608771;
   (0, 0, 0, 0, 0, 0, 0, 0, 1, 0, 0, 0, 0) 0.546274 0.453726;
   (1, 0, 0, 0, 0, 0, 0, 0, 1, 0, 0, 0, 0) 0.0311087 0.968891;
   (0, 1, 0, 0, 0, 0, 0, 0, 1, 0, 0, 0, 0) 0.526411 0.473589;
   (1, 1, 0, 0, 0, 0, 0, 0, 1, 0, 0, 0, 0) 0.425916 0.574084;
   (0, 0, 1, 0, 0, 0, 0, 0, 1, 0, 0, 0, 0) 0.592106 0.407894;
   (1, 0, 1, 0, 0, 0, 0, 0, 1, 0, 0, 0, 0) 0.416011 0.583989;
   (0, 1, 1, 0, 0, 0, 0, 0, 1, 0, 0, 0, 0) 0.727525 0.272475;
   (1, 1, 1, 0, 0, 0, 0, 0, 1, 0, 0, 0, 0) 0.174652 0.825348;
   (0, 0, 0, 1, 0, 0, 0, 0, 1, 0, 0, 0, 0) 0.606077 0.393923;
   (1, 0, 0, 1, 0, 0, 0, 0, 1, 0, 0, 0, 0) 0.414037 0.585963;
   (0, 1, 0, 1, 0, 0, 0, 0, 1, 0, 0, 0, 0) 0.529611 0.470389;
   (1, 1, 0, 1, 0, 0, 0, 0, 1, 0, 0, 0, 0) 0.538479 0.461521;
   (0, 0, 1, 1, 0, 0, 0, 0, 1, 0, 0, 0, 0) 0.515679 0.484321;
   (1, 0, 1, 1, 0, 0, 0, 0, 1, 0, 0, 0, 0) 0.25173 0.74827;
   (0, 1, 1, 1, 0, 0, 0, 0, 1, 0, 0, 0, 0) 0.628461 0.371539;
   (1, 1, 1, 1, 0, 0, 0, 0, 1, 0, 0, 0, 0) 0.0873081 0.912692;
   (0, 0, 0, 0, 1, 0, 0, 0, 1, 0, 0, 0, 0) 0.622887 0.377113;
   (1, 0, 0, 0, 1, 0, 0, 0, 1, 0, 0, 0, 0) 0.508592 0.491408;
   (0, 1, 0, 0, 1, 0, 0, 0, 1, 0, 0, 0, 0) 0.410998 0.589002;
   (1, 1, 0, 0, 1, 0, 0, 0, 1, 0, 0, 0, 0) 0.522859 0.477141;
   (0, 0, 1, 0, 1, 0, 0, 0, 1, 0, 0, 0, 0) 0.00808902 0.991911;
   (1, 0, 1, 0, 1, 0, 0, 0, 1, 0, 0, 0, 0) 0.944859 0.0551411;
   (0, 1, 1, 0, 1, 0, 0, 0, 1, 0, 0, 0, 0) 0.477721 0.522279;
   (1, 1, 1, 0, 1, 0, 0, 0, 1, 0, 0, 0, 0) 0.549585 0.450415;
   (0, 0, 0, 1, 1, 0, 0, 0, 1, 0, 0, 0, 0) 0.888953 0.111047;
   (1, 0, 0, 1, 1, 0, 0, 0, 1, 0, 0, 0, 0) 0.791429 0.208571;
   (0, 1, 0, 1, 1, 0, 0, 0, 1, 0, 0, 0, 0) 0.152391 0.847609;
   (1, 1, 0, 1, 1, 0, 0, 0, 1, 0, 0, 0, 0) 0.621429 0.378571;
   (0, 0, 1, 1, 1, 0, 0, 0, 1, 0, 0, 0, 0) 0.471438 0.528562;
   (1, 0, 1, 1, 1, 0, 0, 0, 1, 0, 0, 0, 0) 0.907889 0.0921109;
   (0, 1, 1, 1, 1, 0, 0, 0, 1, 0, 0, 0, 0) 0.174965 0.825035;
   (1, 1, 1, 1, 1, 0, 0, 0, 1, 0, 0, 0, 0) 0.675299 0.324701;
   (0, 0, 0, 0, 0, 1, 0, 0, 1, 0, 0, 0, 0) 0.341472 0.658528;
   (1, 0, 0, 0, 0, 1, 0, 0, 1, 0, 0, 0, 0) 0.509071 0.490929;
   (0, 1, 0, 0, 0, 1, 0, 0, 1, 0, 0, 0, 0) 0.158392 0.841608;
   (1, 1, 0, 0, 0, 1, 0, 0, 1, 0, 0, 0, 0) 0.808049 0.191951;
   (0, 0, 1, 0, 0, 1, 0, 0, 1, 0, 0, 0, 0) 0.912959 0.0870406;
   (1, 0, 1, 0, 0, 1, 0, 0, 1, 0, 0, 0, 0) 0.340598 0.659402;
   (0, 1, 1, 0, 0, 1, 0, 0, 1, 0, 0, 0, 0) 0.23392 0.76608;
   (1, 1, 1, 0, 0, 1, 0, 0, 1, 0, 0, 0, 0) 0.563171 0.436829;
   (0, 0, 0, 1, 0, 1, 0, 0, 1, 0, 0, 0, 0) 0.958102 0.0418985;
   (1, 0, 0, 1, 0, 1, 0, 0, 1, 0, 0, 0, 0) 0.554801 0.445199;
   (0, 1, 0, 1, 0, 1, 0, 0, 1, 0, 0, 0, 0) 0.490773 0.509227;
   (1, 1, 0, 1, 0, 1, 0, 0, 1, 0, 0, 0, 0) 0.352332 0.647668;
   (0, 0, 1, 1, 0, 1, 0, 0, 1, 0, 0, 0, 0) 0.162006 0.837994;
   (1, 0, 1, 1, 0, 1, 0, 0, 1, 0, 0, 0, 0) 0.435194 0.564806;
   (0, 1, 1, 1, 0, 1, 0, 0, 1, 0, 0, 0, 0) 0.687855 0.312145;
   (1, 1, 1, 1, 0, 1, 0, 0, 1, 0, 0, 0, 0) 0.254759 0.745241;
   (0, 0, 0, 0, 1, 1, 0, 0, 1, 0, 0, 0, 0) 0.709203 0.290797;
   (1, 0, 0, 0, 1, 1, 0, 0, 1, 0, 0, 0, 0) 0.843762 0.156238;
   (0, 1, 0, 0, 1, 1, 0, 0, 1, 0, 0, 0, 0) 0.497606 0.502394;
   (1, 1, 0, 0, 1, 1, 0, 0, 1, 0, 0, 0, 0) 0.973426 0.0265738;
   (0, 0, 1, 0, 1, 1, 0, 0, 1, 0, 0, 0, 0) 0.135127 0.864873;
   (1, 0, 1, 0, 1, 1, 0, 0, 1, 0, 0, 0, 0) 0.716371 0.283629;
   (0, 1, 1, 0, 1, 1, 0, 0, 1, 0, 0, 0, 0) 0.446929 0.553071;
   (1, 1, 1, 0, 1, 1, 0, 0, 1, 0, 0, 0, 0) 0.584239 0.415761;
   (0, 0, 0, 1, 1, 1, 0, 0, 1, 0, 0, 0, 0) 0.480866 0.519134;
   (1, 0, 0, 1, 1, 1, 0, 0, 1, 0, 0, 0, 0) 0.736459 0.263541;
   (0, 1, 0, 1, 1, 1, 0, 0, 1, 0, 0, 0, 0) 0.35841 0.64159;
   (1, 1, 0, 1, 1, 1, 0, 0, 1, 0, 0, 0, 0) 0.375108 0.624892;
   (0, 0, 1, 1, 1, 1, 0, 0, 1, 0, 0, 0, 0) 0.959411 0.0405888;
   (1, 0, 1, 1, 1, 1, 0, 0, 1, 0, 0, 0, 0) 0.0852643 0.914736;
   (0, 1, 1, 1, 1, 1, 0, 0, 1, 0, 0, 0, 0) 0.540207 0.459793;
   (1, 1, 1, 1, 1, 1, 0, 0, 1, 0, 0, 0, 0) 0.695745 0.304255;
   (0, 0, 0, 0, 0, 0, 1, 0, 1, 0, 0, 0, 0) 0.090678 0.909322;
   (1, 0, 0, 0, 0, 0, 1, 0, 1, 0, 0, 0, 0) 0.846412 0.153588;
   (0, 1, 0, 0, 0, 0, 1, 0, 1, 0, 0, 0, 0) 0.810151 0.189849;
   (1, 1, 0, 0, 0, 0, 1, 0, 1, 0, 0, 0, 0) 0.0152021 0.984798;
   (0, 0, 1, 0, 0, 0, 1, 0, 1, 0, 0, 0, 0) 0.504289 0.495711;
   (1, 0, 1, 0, 0, 0, 1, 0, 1, 0, 0, 0, 0) 0.548022 0.451978;
   (0, 1, 1, 0, 0, 0, 1, 0, 1, 0, 0, 0, 0) 0.532901 0.467099;
   (1, 1, 1, 0, 0, 0, 1, 0, 1, 0, 0, 0, 0) 0.478038 0.521962;
   (0, 0, 0, 1, 0, 0, 1, 0, 1, 0, 0, 0, 0) 0.386411 0.613589;
   (1, 0, 0, 1, 0, 0, 1, 0, 1, 0, 0, 0, 0) 0.655732 0.344268;
   (0, 1, 0, 1, 0, 0, 1, 0, 1, 0, 0, 0, 0) 0.995443 0.00455653;
   (1, 1, 0, 1, 0, 0, 1, 0, 1, 0, 0, 0, 0) 0.393677 0.606323;
   (0, 0, 1, 1, 0, 0, 1, 0, 1, 0, 0, 0, 0) 0.754743 0.245257;
   (1, 0, 1, 1, 0, 0, 1, 0, 1, 0, 0, 0, 0) 0.217463 0.782537;
   (0, 1, 1, 1, 0, 0, 1, 0, 1, 0, 0, 0, 0) 0.542693 0.457307;
   (1, 1, 1, 1, 0, 0, 1, 0, 1, 0, 0, 0, 0) 0.792315 0.207685;
   (0, 0, 0, 0, 1, 0, 1, 0, 1, 0, 0, 0, 0) 0.289014 0.710986;
   (1, 0, 0, 0, 1, 0, 1, 0, 1, 0, 0, 0, 0) 0.806254 0.193746;
   (0, 1, 0, 0, 1, 0, 1, 0, 1, 0, 0, 0, 0) 0.539973 0.460027;
   (1, 1, 0, 0, 1, 0, 1, 0, 1, 0, 0, 0, 0) 0.311242 0.688758;
   (0, 0, 1, 0, 1, 0, 1, 0, 1, 0, 0, 0, 0) 0.081668 0.918332;
   (1, 0, 1, 0, 1, 0, 1, 0, 1, 0, 0, 0, 0) 0.516617 0.483383;
   (0, 1, 1, 0, 1, 0, 1, 0, 1, 0, 0, 0, 0) 0.0362135 0.963786;
   (1, 1, 1, 0, 1, 0, 1, 0, 1, 0, 0, 0, 0) 0.548201 0.451799;
   (0, 0, 0, 1, 1, 0, 1, 0, 1, 0, 0, 0, 0) 0.415653 0.584347;
   (1, 0, 0, 1, 1, 0, 1, 0, 1, 0, 0, 0, 0) 0.755168 0.244832;
   (0, 1, 0, 1, 1, 0, 1, 0, 1, 0, 0, 0, 0) 0.560099 0.439901;
   (1, 1, 0, 1, 1, 0, 1, 0, 1, 0, 0, 0, 0) 0.717748 0.282252;
   (0, 0, 1, 1, 1, 0, 1, 0, 1, 0, 0, 0, 0) 0.215059 0.784941;
   (1, 0, 1, 1, 1, 0, 1, 0, 1, 0, 0, 0, 0) 0.978202 0.0217982;
   (0, 1, 1, 1, 1, 0, 1, 0, 1, 0, 0, 0, 0) 0.33661 0.66339;
   (1, 1, 1, 1, 1, 0, 1, 0, 1, 0, 0, 0, 0) 0.353932 0.646068;
   (0, 0, 0, 0, 0, 1, 1, 0, 1, 0, 0, 0, 0) 0.438246 0.561754;
   (1, 0, 0, 0, 0, 1, 1, 0, 1, 0, 0, 0, 0) 0.400851 0.599149;
   (0, 1, 0, 0, 0, 1, 1, 0, 1, 0, 0, 0, 0) 0.448372 0.551628;
   (1, 1, 0, 0, 0, 1, 1, 0, 1, 0, 0, 0, 0) 0.646863 0.353137;
   (0, 0, 1, 0, 0, 1, 1, 0, 1, 0, 0, 0, 0) 0.534092 0.465908;
   (1, 0, 1, 0, 0, 1, 1, 0, 1, 0, 0, 0, 0) 0.588866 0.411134;
   (0, 1, 1, 0, 0, 1, 1, 0, 1, 0, 0, 0, 0) 0.664333 0.335667;
   (1, 1, 1, 0, 0, 1, 1, 0, 1, 0, 0, 0, 0) 0.692755 0.307245;
   (0, 0, 0, 1, 0, 1, 1, 0, 1, 0, 0, 0, 0) 0.545287 0.454713;
   (1, 0, 0, 1, 0, 1, 1, 0, 1, 0, 0, 0, 0) 0.176186 0.823814;
   (0, 1, 0, 1, 0, 1, 1, 0, 1, 0, 0, 0, 0) 0.619723 0.380277;
   (1, 1, 0, 1, 0, 1, 1, 0, 1, 0, 0, 0, 0) 0.657361 0.342639;
   (0, 0, 1, 1, 0, 1, 1, 0, 1, 0, 0, 0, 0) 0.684917 0.315083;
   (1, 0, 1, 1, 0, 1, 1, 0, 1, 0, 0, 0, 0) 0.649351 0.350649;
   (0, 1, 1, 1, 0, 1, 1, 0, 1, 0, 0, 0, 0) 0.492357 0.507643;
   (1, 1, 1, 1, 0, 1, 1, 0, 1, 0, 0, 0, 0) 0.614147 0.385853;
   (0, 0, 0, 0, 1, 1, 1, 0, 1, 0, 0, 0, 0) 0.239098 0.760902;
   (1, 0, 0, 0, 1, 1, 1, 0, 1, 0, 0, 0, 0) 0.469409 0.530591;
   (0, 1, 0, 0, 1, 1, 1, 0, 1, 0, 0, 0, 0) 0.348227 0.651773;
   (1, 1, 0, 0, 1, 1, 1, 0, 1, 0, 0, 0, 0) 0.491503 0.508497;
   (0, 0, 1, 0, 1, 1, 1, 0, 1, 0, 0, 0, 0) 0.328111 0.671889;
   (1, 0, 1, 0, 1, 1, 1, 0, 1, 0, 0, 0, 0) 0.219103 0.780897;
   (0, 1, 1, 0, 1, 1, 1, 0, 1, 0, 0, 0, 0) 0.483721 0.516279;
   (1, 1, 1, 0, 1, 1, 1, 0, 1, 0, 0, 0, 0) 0.725959 0.274041;
   (0, 0, 0, 1, 1, 1, 1, 0, 1, 0, 0, 0, 0) 0.443742 0.556258;
   (1, 0, 0, 1, 1, 1, 1, 0, 1, 0, 0, 0, 0) 0.0412043 0.958796;
   (0, 1, 0, 1, 1, 1, 1, 0, 1, 0, 0, 0, 0) 0.887743 0.112257;
   (1, 1, 0, 1, 1, 1, 1, 0, 1, 0, 0, 0, 0) 0.00282912 0.997171;
   (0, 0, 1, 1, 1, 1, 1, 0, 1, 0, 0, 0, 0) 0.00742344 0.992577;
   (1, 0, 1, 1, 1, 1, 1, 0, 1, 0, 0, 0, 0) 0.04844 0.95156;
   (0, 1, 1, 1, 1, 1, 1, 0, 1, 0, 0, 0, 0) 0.533322 0.466678;
   (1, 1, 1, 1, 1, 1, 1, 0, 1, 0, 0, 0, 0) 0.0139885 0.986012;
   (0, 0, 0, 0, 0, 0, 0, 1, 1, 0, 0, 0, 0) 0.0942511 0.905749;
   (1, 0, 0, 0, 0, 0, 0, 1, 1, 0, 0, 0, 0) 0.695811 0.304189;
   (0, 1, 0, 0, 0, 0, 0, 1, 1, 0, 0, 0, 0) 0.932981 0.0670189;
   (1, 1, 0, 0, 0, 0, 0, 1, 1, 0, 0, 0, 0) 0.374424 0.625576;
   (0, 0, 1, 0, 0, 0, 0, 1, 1, 0, 0, 0, 0) 0.573723 0.426277;
   (1, 0, 1, 0, 0, 0, 0, 1, 1, 0, 0, 0, 0) 0.552126 0.447874;
   (0, 1, 1, 0, 0, 0, 0, 1, 1, 0, 0, 0, 0) 0.751085 0.248915;
   (1, 1, 1, 0, 0, 0, 0, 1, 1, 0, 0, 0, 0) 0.088905 0.911095;
   (0, 0, 0, 1, 0, 0, 0, 1, 1, 0, 0, 0, 0) 0.285415 0.714585;
   (1, 0, 0, 1, 0, 0, 0, 1, 1, 0, 0, 0, 0) 0.920871 0.0791288;
   (0, 1, 0, 1, 0, 0, 0, 1, 1, 0, 0, 0, 0) 0.164852 0.835148;
   (1, 1, 0, 1, 0, 0, 0, 1, 1, 0, 0, 0, 0) 0.438282 0.561718;
   (0, 0, 1, 1, 0, 0, 0, 1, 1, 0, 0, 0, 0) 0.752034 0.247966;
   (1, 0, 1, 1, 0, 0, 0, 1, 1, 0, 0, 0, 0) 0.546358 0.453642;
   (0, 1, 1, 1, 0, 0, 0, 1, 1, 0, 0, 0, 0) 0.55699 0.44301;
   (1, 1, 1, 1, 0, 0, 0, 1, 1, 0, 0, 0, 0) 0.704933 0.295067;
   (0, 0, 0, 0, 1, 0, 0, 1, 1, 0, 0, 0, 0) 0.451331 0.548669;
   (1, 0, 0, 0, 1, 0, 0, 1, 1, 0, 0, 0, 0) 0.681647 0.318353;
   (0, 1, 0, 0, 1, 0, 0, 1, 1, 0, 0, 0, 0) 0.52955 0.47045;
   (1, 1, 0, 0, 1, 0, 0, 1, 1, 0, 0, 0, 0) 0.210661 0.789339;
   (0, 0, 1, 0, 1, 0, 0, 1, 1, 0, 0, 0, 0) 0.686271 0.313729;
   (1, 0, 1, 0, 1, 0, 0, 1, 1, 0, 0, 0, 0) 0.496238 0.503762;
   (0, 1, 1, 0, 1, 0, 0, 1, 1, 0, 0, 0, 0) 0.214868 0.785132;
   (1, 1, 1, 0, 1, 0, 0, 1, 1, 0, 0, 0, 0) 0.673018 0.326982;
   (0, 0, 0, 1, 1, 0, 0, 1, 1, 0, 0, 0, 0) 0.957206 0.042794;
   (1, 0, 0, 1, 1, 0, 0, 1, 1, 0, 0, 0, 0) 0.43505 0.56495;
   (0, 1, 0, 1, 1, 0, 0, 1, 1, 0, 0, 0, 0) 0.757879 0.242121;
   (1, 1, 0, 1, 1, 0, 0, 1, 1, 0, 0, 0, 0) 0.465973 0.534027;
   (0, 0, 1, 1, 1, 0, 0, 1, 1, 0, 0, 0, 0) 0.637101 0.362899;
   (1, 0, 1, 1, 1, 0, 0, 1, 1, 0, 0, 0, 0) 0.0583241 0.941676;
   (0, 1, 1, 1, 1, 0, 0, 1, 1, 0, 0, 0, 0) 0.395947 0.604053;
   (1, 1, 1, 1, 1, 0, 0, 1, 1, 0, 0, 0, 0) 0.488029 0.511971;
   (0, 0, 0, 0, 0, 1, 0, 1, 1, 0, 0, 0, 0) 0.287728 0.712272;
   (1, 0, 0, 0, 0, 1, 0, 1, 1, 0, 0, 0, 0) 0.750105 0.249895;
   (0, 1, 0, 0, 0, 1, 0, 1, 1, 0, 0, 0, 0) 0.669676 0.330324;
   (1, 1, 0, 0, 0, 1, 0, 1, 1, 0, 0, 0, 0) 0.662306 0.337694;
   (0, 0, 1, 0, 0, 1, 0, 1, 1, 0, 0, 0, 0) 0.462549 0.537451;
   (1, 0, 1, 0, 0, 1, 0, 1, 1, 0, 0, 0, 0) 0.982177 0.0178226;
   (0, 1, 1, 0, 0, 1, 0, 1, 1, 0, 0, 0, 0) 0.679058 0.320942;
   (1, 1, 1, 0, 0, 1, 0, 1, 1, 0, 0, 0, 0) 0.635549 0.364451;
   (0, 0, 0, 1, 0, 1, 0, 1, 1, 0, 0, 0, 0) 0.366093 0.633907;
   (1, 0, 0, 1, 0, 1, 0, 1, 1, 0, 0, 0, 0) 0.68448 0.31552;
   (0, 1, 0, 1, 0, 1, 0, 1, 1, 0, 0, 0, 0) 0.144369 0.855631;
   (1, 1, 0, 1, 0, 1, 0, 1, 1, 0, 0, 0, 0) 0.712984 0.287016;
   (0, 0, 1, 1, 0, 1, 0, 1, 1, 0, 0, 0, 0) 0.390429 0.609571;
   (1, 0, 1, 1, 0, 1, 0, 1, 1, 0, 0, 0, 0) 0.592969 0.407031;
   (0, 1, 1, 1, 0, 1, 0, 1, 1, 0, 0, 0, 0) 0.299491 0.700509;
   (1, 1, 1, 1, 0, 1, 0, 1, 1, 0, 0, 0, 0) 0.506959 0.493041;
   (0, 0, 0, 0, 1, 1, 0, 1, 1, 0, 0, 0, 0) 0.322566 0.677434;
   (1, 0, 0, 0, 1, 1, 0, 1, 1, 0, 0, 0, 0) 0.455057 0.544943;
   (0, 1, 0, 0, 1, 1, 0, 1, 1, 0, 0, 0, 0) 0.376477 0.623523;
   (1, 1, 0, 0, 1, 1, 0, 1, 1, 0, 0, 0, 0) 0.560397 0.439603;
   (0, 0, 1, 0, 1, 1, 0, 1, 1, 0, 0, 0, 0) 0.582141 0.417859;
   (1, 0, 1, 0, 1, 1, 0, 1, 1, 0, 0, 0, 0) 0.454794 0.545206;
   (0, 1, 1, 0, 1, 1, 0, 1, 1, 0, 0, 0, 0) 0.313502 0.686498;
   (1, 1, 1, 0, 1, 1, 0, 1, 1, 0, 0, 0, 0) 0.710176 0.289824;
   (0, 0, 0, 1, 1, 1, 0, 1, 1, 0, 0, 0, 0) 0.610519 0.389481;
   (1, 0, 0, 1, 1, 1, 0, 1, 1, 0, 0, 0, 0) 0.375605 0.624395;
   (0, 1, 0, 1, 1, 1, 0, 1, 1, 0, 0, 0, 0) 0.574089 0.425911;
   (1, 1, 0, 1, 1, 1, 0, 1, 1, 0, 0, 0, 0) 0.460299 0.539701;
   (0, 0, 1, 1, 1, 1, 0, 1, 1, 0, 0, 0, 0) 0.196946 0.803054;
   (1, 0, 1, 1, 1, 1, 0, 1, 1, 0, 0, 0, 0) 0.465878 0.534122;
   (0, 1, 1, 1, 1, 1, 0, 1, 1, 0, 0, 0, 0) 0.485623 0.514377;
   (1, 1, 1, 1, 1, 1, 0, 1, 1, 0, 0, 0, 0) 0.360202 0.639798;
   (0, 0, 0, 0, 0, 0, 1, 1, 1, 0, 0, 0, 0) 0.833924 0.166076;
   (1, 0, 0, 0, 0, 0, 1, 1, 1, 0, 0, 0, 0) 0.040454 0.959546;
   (0, 1, 0, 0, 0, 0, 1, 1, 1, 0, 0, 0, 0) 0.791586 0.208414;
   (1, 1, 0, 0, 0, 0, 1, 1, 1, 0, 0, 0, 0) 0.338307 0.661693;
   (0, 0, 1, 0, 0, 0, 1, 1, 1, 0, 0, 0, 0) 0.315549 0.684451;
   (1, 0, 1, 0, 0, 0, 1, 1, 1, 0, 0, 0, 0) 0.701573 0.298427;
   (0, 1, 1, 0, 0, 0, 1, 1, 1, 0, 0, 0, 0) 0.629085 0.370915;
   (1, 1, 1, 0, 0, 0, 1, 1, 1, 0, 0, 0, 0) 0.938216 0.0617836;
   (0, 0, 0, 1, 0, 0, 1, 1, 1, 0, 0, 0, 0) 0.306333 0.693667;
   (1, 0, 0, 1, 0, 0, 1, 1, 1, 0, 0, 0, 0) 0.553575 0.446425;
   (0, 1, 0, 1, 0, 0, 1, 1, 1, 0, 0, 0, 0) 0.584577 0.415423;
   (1, 1, 0, 1, 0, 0, 1, 1, 1, 0, 0, 0, 0) 0.0536165 0.946384;
   (0, 0, 1, 1, 0, 0, 1, 1, 1, 0, 0, 0, 0) 0.576323 0.423677;
   (1, 0, 1, 1, 0, 0, 1, 1, 1, 0, 0, 0, 0) 0.804328 0.195672;
   (0, 1, 1, 1, 0, 0, 1, 1, 1, 0, 0, 0, 0) 0.259403 0.740597;
   (1, 1, 1, 1, 0, 0, 1, 1, 1, 0, 0, 0, 0) 0.529774 0.470226;
   (0, 0, 0, 0, 1, 0, 1, 1, 1, 0, 0, 0, 0) 0.0857851 0.914215;
   (1, 0, 0, 0, 1, 0, 1, 1, 1, 0, 0, 0, 0) 0.367313 0.632687;
   (0, 1, 0, 0, 1, 0, 1, 1, 1, 0, 0, 0, 0) 0.483976 0.516024;
   (1, 1, 0, 0, 1, 0, 1, 1, 1, 0, 0, 0, 0) 0.43306 0.56694;
   (0, 0, 1, 0, 1, 0, 1, 1, 1, 0, 0, 0, 0) 0.58691 0.41309;
   (1, 0, 1, 0, 1, 0, 1, 1, 1, 0, 0, 0, 0) 0.182351 0.817649;
   (0, 1, 1, 0, 1, 0, 1, 1, 1, 0, 0, 0, 0) 0.63294 0.36706;
   (1, 1, 1, 0, 1, 0, 1, 1, 1, 0, 0, 0, 0) 0.858991 0.141009;
   (0, 0, 0, 1, 1, 0, 1, 1, 1, 0, 0, 0, 0) 0.257678 0.742322;
   (1, 0, 0, 1, 1, 0, 1, 1, 1, 0, 0, 0, 0) 0.66854 0.33146;
   (0, 1, 0, 1, 1, 0, 1, 1, 1, 0, 0, 0, 0) 0.399519 0.600481;
   (1, 1, 0, 1, 1, 0, 1, 1, 1, 0, 0, 0, 0) 0.738551 0.261449;
   (0, 0, 1, 1, 1, 0, 1, 1, 1, 0, 0, 0, 0) 0.151548 0.848452;
   (1, 0, 1, 1, 1, 0, 1, 1, 1, 0, 0, 0, 0) 0.539807 0.460193;
   (0, 1, 1, 1, 1, 0, 1, 1, 1, 0, 0, 0, 0) 0.524111 0.475889;
   (1, 1, 1, 1, 1, 0, 1, 1, 1, 0, 0, 0, 0) 0.628178 0.371822;
   (0, 0, 0, 0, 0, 1, 1, 1, 1, 0, 0, 0, 0) 0.354794 0.645206;
   (1, 0, 0, 0, 0, 1, 1, 1, 1, 0, 0, 0, 0) 0.986528 0.0134723;
   (0, 1, 0, 0, 0, 1, 1, 1, 1, 0, 0, 0, 0) 0.881377 0.118623;
   (1, 1, 0, 0, 0, 1, 1, 1, 1, 0, 0, 0, 0) 0.310988 0.689012;
   (0, 0, 1, 0, 0, 1, 1, 1, 1, 0, 0, 0, 0) 0.596037 0.403963;
   (1, 0, 1, 0, 0, 1, 1, 1, 1, 0, 0, 0, 0) 0.612786 0.387214;
   (0, 1, 1, 0, 0, 1, 1, 1, 1, 0, 0, 0, 0) 0.708265 0.291735;
   (1, 1, 1, 0, 0, 1, 1, 1, 1, 0, 0, 0, 0) 0.357532 0.642468;
   (0, 0, 0, 1, 0, 1, 1, 1, 1, 0, 0, 0, 0) 0.418506 0.581494;
   (1, 0, 0, 1, 0, 1, 1, 1, 1, 0, 0, 0, 0) 0.6899 0.3101;
   (0, 1, 0, 1, 0, 1, 1, 1, 1, 0, 0, 0, 0) 0.660475 0.339525;
   (1, 1, 0, 1, 0, 1, 1, 1, 1, 0, 0, 0, 0) 0.630106 0.369894;
   (0, 0, 1, 1, 0, 1, 1, 1, 1, 0, 0, 0, 0) 0.562099 0.437901;
   (1, 0, 1, 1, 0, 1, 1, 1, 1, 0, 0, 0, 0) 0.422179 0.577821;
   (0, 1, 1, 1, 0, 1, 1, 1, 1, 0, 0, 0, 0) 0.664026 0.335974;
   (1, 1, 1, 1, 0, 1, 1, 1, 1, 0, 0, 0, 0) 0.298899 0.701101;
   (0, 0, 0, 0, 1, 1, 1, 1, 1, 0, 0, 0, 0) 0.0284968 0.971503;
   (1, 0, 0, 0, 1, 1, 1, 1, 1, 0, 0, 0, 0) 0.0369705 0.963029;
   (0, 1, 0, 0, 1, 1, 1, 1, 1, 0, 0, 0, 0) 0.920316 0.079684;
   (1, 1, 0, 0, 1, 1, 1, 1, 1, 0, 0, 0, 0) 0.36133 0.63867;
   (0, 0, 1, 0, 1, 1, 1, 1, 1, 0, 0, 0, 0) 0.384667 0.615333;
   (1, 0, 1, 0, 1, 1, 1, 1, 1, 0, 0, 0, 0) 0.70732 0.29268;
   (0, 1, 1, 0, 1, 1, 1, 1, 1, 0, 0, 0, 0) 0.608639 0.391361;
   (1, 1, 1, 0, 1, 1, 1, 1, 1, 0, 0, 0, 0) 0.289889 0.710111;
   (0, 0, 0, 1, 1, 1, 1, 1, 1, 0, 0, 0, 0) 0.928918 0.071082;
   (1, 0, 0, 1, 1, 1, 1, 1, 1, 0, 0, 0, 0) 0.243187 0.756813;
   (0, 1, 0, 1, 1, 1, 1, 1, 1, 0, 0, 0, 0) 0.506634 0.493366;
   (1, 1, 0, 1, 1, 1, 1, 1, 1, 0, 0, 0, 0) 0.51511 0.48489;
   (0, 0, 1, 1, 1, 1, 1, 1, 1, 0, 0, 0, 0) 0.262106 0.737894;
   (1, 0, 1, 1, 1, 1, 1, 1, 1, 0, 0, 0, 0) 0.47792 0.52208;
   (0, 1, 1, 1, 1, 1, 1, 1, 1, 0, 0, 0, 0) 0.831534 0.168466;
   (1, 1, 1, 1, 1, 1, 1, 1, 1, 0, 0, 0, 0) 0.335518 0.664482;
   (0, 0, 0, 0, 0, 0, 0, 0, 0, 1, 0, 0, 0) 0.333177 0.666823;
   (1, 0, 0, 0, 0, 0, 0, 0, 0, 1, 0, 0, 0) 0.47871 0.52129;
   (0, 1, 0, 0, 0, 0, 0, 0, 0, 1, 0, 0, 0) 0.513167 0.486833;
   (1, 1, 0, 0, 0, 0, 0, 0, 0, 1, 0, 0, 0) 0.676675 0.323325;
   (0, 0, 1, 0, 0, 0, 0, 0, 0, 1, 0, 0, 0) 0.0760453 0.923955;
   (1, 0, 1, 0, 0, 0, 0, 0, 0, 1, 0, 0, 0) 0.563197 0.436803;
   (0, 1, 1, 0, 0, 0, 0, 0, 0, 1, 0, 0, 0) 0.799005 0.200995;
   (1, 1, 1, 0, 0, 0, 0, 0, 0, 1, 0, 0, 0) 0.548056 0.451944;
   (0, 0, 0, 1, 0, 0, 0, 0, 0, 1, 0, 0, 0) 0.684491 0.315509;
   (1, 0, 0, 1, 0, 0, 0, 0, 0, 1, 0, 0, 0) 0.621592 0.378408;
   (0, 1, 0, 1, 0, 0, 0, 0, 0, 1, 0, 0, 0) 0.937768 0.0622322;
   (1, 1, 0, 1, 0, 0, 0, 0, 0, 1, 0, 0, 0) 0.815419 0.184581;
   (0, 0, 1, 1, 0, 0, 0, 0, 0, 1, 0, 0, 0) 0.552099 0.447901;
   (1, 0, 1, 1, 0, 0, 0, 0, 0, 1, 0, 0, 0) 0.263132 0.736868;
   (0, 1, 1, 1, 0, 0, 0, 0, 0, 1, 0, 0, 0) 0.671048 0.328952;
   (1, 1, 1, 1, 0, 0, 0, 0, 0, 1, 0, 0, 0) 0.494107 0.505893;
   (0, 0, 0, 0, 1, 0, 0, 0, 0, 1, 0, 0, 0) 0.764833 0.235167;
   (1, 0, 0, 0, 1, 0, 0, 0, 0, 1, 0, 0, 0) 0.362742 0.637258;
   (0, 1, 0, 0, 1, 0, 0, 0, 0, 1, 0, 0, 0) 0.237098 0.762902;
   (1, 1, 0, 0, 1, 0, 0, 0, 0, 1, 0, 0, 0) 0.00452966 0.99547;
   (0, 0, 1, 0, 1, 0, 0, 0, 0, 1, 0, 0, 0) 0.426198 0.573802;
   (1, 0, 1, 0, 1, 0, 0, 0, 0, 1, 0, 0, 0) 0.585502 0.414498;
   (0, 1, 1, 0, 1, 0, 0, 0, 0, 1, 0, 0, 0) 0.557923 0.442077;
   (1, 1, 1, 0, 1, 0, 0, 0, 0, 1, 0, 0, 0) 0.503604 0.496396;
   (0, 0, 0, 1, 1, 0, 0, 0, 0, 1, 0, 0, 0) 0.675473 0.324527;
   (1, 0, 0, 1, 1, 0, 0, 0, 0, 1, 0, 0, 0) 0.289186 0.710814;
   (0, 1, 0, 1, 1, 0, 0, 0, 0, 1, 0, 0, 0) 0.508328 0.491672;
   (1, 1, 0, 1, 1, 0, 0, 0, 0, 1, 0, 0, 0) 0.72218 0.27782;
   (0, 0, 1, 1, 1, 0, 0, 0, 0, 1, 0, 0, 0) 0.699143 0.300857;
   (1, 0, 1, 1, 1, 0, 0, 0, 0, 1, 0, 0, 0) 0.172484 0.827516;
   (0, 1, 1, 1, 1, 0, 0, 0, 0, 1, 0, 0, 0) 0.435261 0.564739;
   (1, 1, 1, 1, 1, 0, 0, 0, 0, 1, 0, 0, 0) 0.483597 0.516403;
   (0, 0, 0, 0, 0, 1, 0, 0, 0, 1, 0, 0, 0) 0.59757 0.40243;
   (1, 0, 0, 0, 0, 1, 0, 0, 0, 1, 0, 0, 0) 0.556716 0.443284;
   (0, 1, 0, 0, 0, 1, 0, 0, 0, 1, 0, 0, 0) 0.453493 0.546507;
   (1, 1, 0, 0, 0, 1, 0, 0, 0, 1, 0, 0, 0) 0.281242 0.718758;
   (0, 0, 1, 0, 0, 1, 0, 0, 0, 1, 0, 0, 0) 0.696319 0.303681;
   (1, 0, 1, 0, 0, 1, 0, 0, 0, 1, 0, 0, 0) 0.0718735 0.928126;
   (0, 1, 1, 0, 0, 1, 0, 0, 0, 1, 0, 0, 0) 0.242075 0.757925;
   (1, 1, 1, 0, 0, 1, 0, 0, 0, 1, 0, 0, 0) 0.184935 0.815065;
   (0, 0, 0, 1, 0, 1, 0, 0, 0, 1, 0, 0, 0) 0.541781 0.458219;
   (1, 0, 0, 1, 0, 1, 0, 0, 0, 1, 0, 0, 0) 0.402029 0.597971;
   (0, 1, 0, 1, 0, 1, 0, 0, 0, 1, 0, 0, 0) 0.245068 0.754932;
   (1, 1, 0, 1, 0, 1, 0, 0, 0, 1, 0, 0, 0) 0.339629 0.660371;
   (0, 0, 1, 1, 0, 1, 0, 0, 0, 1, 0, 0, 0) 0.606025 0.393975;
   (1, 0, 1, 1, 0, 1, 0, 0, 0, 1, 0, 0, 0) 0.481973 0.518027;
   (0, 1, 1, 1, 0, 1, 0, 0, 0, 1, 0, 0, 0) 0.679327 0.320673;
   (1, 1, 1, 1, 0, 1, 0, 0, 0, 1, 0, 0, 0) 0.707669 0.292331;
   (0, 0, 0, 0, 1, 1, 0, 0, 0, 1, 0, 0, 0) 0.403102 0.596898;
   (1, 0, 0, 0, 1, 1, 0, 0, 0, 1, 0, 0, 0) 0.531545 0.468455;
   (0, 1, 0, 0, 1, 1, 0, 0, 0, 1, 0, 0, 0) 0.560239 0.439761;
   (1, 1, 0, 0, 1, 1, 0, 0, 0, 1, 0, 0, 0) 0.547322 0.452678;
   (0, 0, 1, 0, 1, 1, 0, 0, 0, 1, 0, 0, 0) 0.369997 0.630003;
   (1, 0, 1, 0, 1, 1, 0, 0, 0, 1, 0, 0, 0) 0.503723 0.496277;
   (0, 1, 1, 0, 1, 1, 0, 0, 0, 1, 0, 0, 0) 0.0895068 0.910493;
   (1, 1, 1, 0, 1, 1, 0, 0, 0, 1, 0, 0, 0) 0.757613 0.242387;
   (0, 0, 0, 1, 1, 1, 0, 0, 0, 1, 0, 0, 0) 0.312808 0.687192;
   (1, 0, 0, 1, 1, 1, 0, 0, 0, 1, 0, 0, 0) 0.520442 0.479558;
   (0, 1, 0, 1, 1, 1, 0, 0, 0, 1, 0, 0, 0) 0.855557 0.144443;
   (1, 1, 0, 1, 1, 1, 0, 0, 0, 1, 0, 0, 0) 0.376449 0.623551;
   (0, 0, 1, 1, 1, 1, 0, 0, 0, 1, 0, 0, 0) 0.279726 0.720274;
   (1, 0, 1, 1, 1, 1, 0, 0, 0, 1, 0, 0, 0) 0.779986 0.220014;
   (0, 1, 1, 1, 1, 1, 0, 0, 0, 1, 0, 0, 0) 0.826053 0.173947;
   (1, 1, 1, 1, 1, 1, 0, 0, 0, 1, 0, 0, 0) 0.543286 0.456714;
   (0, 0, 0, 0, 0, 0, 1, 0, 0, 1, 0, 0, 0) 0.516727 0.483273;
   (1, 0, 0, 0, 0, 0, 1, 0, 0, 1, 0, 0, 0) 0.456247 0.543753;
   (0, 1, 0, 0, 0, 0, 1, 0, 0, 1, 0, 0, 0) 0.355185 0.644815;
   (1, 1, 0, 0, 0, 0, 1, 0, 0, 1, 0, 0, 0) 0.634953 0.365047;
   (0, 0, 1, 0, 0, 0, 1, 0, 0, 1, 0, 0, 0) 0.319912 0.680088;
   (1, 0, 1, 0, 0, 0, 1, 0, 0, 1, 0, 0, 0) 0.710579 0.289421;
   (0, 1, 1, 0, 0, 0, 1, 0, 0, 1, 0, 0, 0) 0.400868 0.599132;
   (1, 1, 1, 0, 0, 0, 1, 0, 0, 1, 0, 0, 0) 0.673429 0.326571;
   (0, 0, 0, 1, 0, 0, 1, 0, 0, 1, 0, 0, 0) 0.12486 0.87514;
   (1, 0, 0, 1, 0, 0, 1, 0, 0, 1, 0, 0, 0) 0.752321 0.247679;
   (0, 1, 0, 1, 0, 0, 1, 0, 0, 1, 0, 0, 0) 0.473865 0.526135;
   (1, 1, 0, 1, 0, 0, 1, 0, 0, 1, 0, 0, 0) 0.114354 0.885646;
   (0, 0, 1, 1, 0, 0, 1, 0, 0, 1, 0, 0, 0) 0.479486 0.520514;
   (1, 0, 1, 1, 0, 0, 1, 0, 0, 1, 0, 0, 0) 0.674552 0.325448;
   (0, 1, 1, 1, 0, 0, 1, 0, 0, 1, 0, 0, 0) 0.72677 0.27323;
   (1, 1, 1, 1, 0, 0, 1, 0, 0, 1, 0, 0, 0) 0.940154 0.059846;
   (0, 0, 0, 0, 1, 0, 1, 0, 0, 1, 0, 0, 0) 0.326617 0.673383;
   (1, 0, 0, 0, 1, 0, 1, 0, 0, 1, 0, 0, 0) 0.48534 0.51466;
   (0, 1, 0, 0, 1, 0, 1, 0, 0, 1, 0, 0, 0) 0.625477 0.374523;
   (1, 1, 0, 0, 1, 0, 1, 0, 0, 1, 0, 0, 0) 0.545262 0.454738;
   (0, 0, 1, 0, 1, 0, 1, 0, 0, 1, 0, 0, 0) 0.505728 0.494272;
   (1, 0, 1, 0, 1, 0, 1, 0, 0, 1, 0, 0, 0) 0.382126 0.617874;
   (0, 1, 1, 0, 1, 0, 1, 0, 0, 1, 0, 0, 0) 0.445134 0.554866;
   (1, 1, 1, 0, 1, 0, 1, 0, 0, 1, 0, 0, 0) 0.5562 0.4438;
   (0, 0, 0, 1, 1, 0, 1, 0, 0, 1, 0, 0, 0) 0.446669 0.553331;
   (1, 0, 0, 1, 1, 0, 1, 0, 0, 1, 0, 0, 0) 0.395789 0.604211;
   (0, 1, 0, 1, 1, 0, 1, 0, 0, 1, 0, 0, 0) 0.681504 0.318496;
   (1, 1, 0, 1, 1, 0, 1, 0, 0, 1, 0, 0, 0) 0.860025 0.139975;
   (0, 0, 1, 1, 1, 0, 1, 0, 0, 1, 0, 0, 0) 0.323135 0.676865;
   (1, 0, 1, 1, 1, 0, 1, 0, 0, 1, 0, 0, 0) 0.185261 0.814739;
   (0, 1, 1, 1, 1, 0, 1, 0, 0, 1, 0, 0, 0) 0.115854 0.884146;
   (1, 1, 1, 1, 1, 0, 1, 0, 0, 1, 0, 0, 0) 0.788883 0.211117;
   (0, 0, 0, 0, 0, 1, 1, 0, 0, 1, 0, 0, 0) 0.590754 0.409246;
   (1, 0, 0, 0, 0, 1, 1, 0, 0, 1, 0, 0, 0) 0.477997 0.522003;
   (0, 1, 0, 0, 0, 1, 1, 0, 0, 1, 0, 0, 0) 0.997466 0.00253355;
   (1, 1, 0, 0, 0, 1, 1, 0, 0, 1, 0, 0, 0) 0.69192 0.30808;
   (0, 0, 1, 0, 0, 1, 1, 0, 0, 1, 0, 0, 0) 0.339481 0.660519;
   (1, 0, 1, 0, 0, 1, 1, 0, 0, 1, 0, 0, 0) 0.463322 0.536678;
   (0, 1, 1, 0, 0, 1, 1, 0, 0, 1, 0, 0, 0) 0.0804878 0.919512;
   (1, 1, 1, 0, 0, 1, 1, 0, 0, 1, 0, 0, 0) 0.564479 0.435521;
   (0, 0, 0, 1, 0, 1, 1, 0, 0, 1, 0, 0, 0) 0.503615 0.496385;
   (1, 0, 0, 1, 0, 1, 1, 0, 0, 1, 0, 0, 0) 0.559732 0.440268;
   (0, 1, 0, 1, 0, 1, 1, 0, 0, 1, 0, 0, 0) 0.821075 0.178925;
   (1, 1, 0, 1, 0, 1, 1, 0, 0, 1, 0, 0, 0) 0.530347 0.469653;
   (0, 0, 1, 1, 0, 1, 1, 0, 0, 1, 0, 0, 0) 0.134985 0.865015;
   (1, 0, 1, 1, 0, 1, 1, 0, 0, 1, 0, 0, 0) 0.417824 0.582176;
   (0, 1, 1, 1, 0, 1, 1, 0, 0, 1, 0, 0, 0) 0.347281 0.652719;
   (1, 1, 1, 1, 0, 1, 1, 0, 0, 1, 0, 0, 0) 0.479988 0.520012;
   (0, 0, 0, 0, 1, 1, 1, 0, 0, 1, 0, 0, 0) 0.340992 0.659008;
   (1, 0, 0, 0, 1, 1, 1, 0, 0, 1, 0, 0, 0) 0.235543 0.764457;
   (0, 1, 0, 0, 1, 1, 1, 0, 0, 1, 0, 0, 0) 0.65415 0.34585;
   (1, 1, 0, 0, 1, 1, 1, 0, 0, 1, 0, 0, 0) 0.673071 0.326929;
   (0, 0, 1, 0, 1, 1, 1, 0, 0, 1, 0, 0, 0) 0.567927 0.432073;
   (1, 0, 1, 0, 1, 1, 1, 0, 0, 1, 0, 0, 0) 0.147116 0.852884;
   (0, 1, 1, 0, 1, 1, 1, 0, 0, 1, 0, 0, 0) 0.411956 0.588044;
   (1, 1, 1, 0, 1, 1, 1, 0, 0, 1, 0, 0, 0) 0.656023 0.343977;
   (0, 0, 0, 1, 1, 1, 1, 0, 0, 1, 0, 0, 0) 0.520315 0.479685;
   (1, 0, 0, 1, 1, 1, 1, 0, 0, 1, 0, 0, 0) 0.920492 0.0795083;
   (0, 1, 0, 1, 1, 1, 1, 0, 0, 1, 0, 0, 0) 0.495694 0.504306;
   (1, 1, 0, 1, 1, 1, 1, 0, 0, 1, 0, 0, 0) 0.856867 0.143133;
   (0, 0, 1, 1, 1, 1, 1, 0, 0, 1, 0, 0, 0) 0.510463 0.489537;
   (1, 0, 1, 1, 1, 1, 1, 0, 0, 1, 0, 0, 0) 0.403884 0.596116;
   (0, 1, 1, 1, 1, 1, 1, 0, 0, 1, 0, 0, 0) 0.345092 0.654908;
   (1, 1, 1, 1, 1, 1, 1, 0, 0, 1, 0, 0, 0) 0.748701 0.251299;
   (0, 0, 0, 0, 0, 0, 0, 1, 0, 1, 0, 0, 0) 0.674395 0.325605;
   (1, 0, 0, 0, 0, 0, 0, 1, 0, 1, 0, 0, 0) 0.427537 0.572463;
   (0, 1, 0, 0, 0, 0, 0, 1, 0, 1, 0, 0, 0) 0.498981 0.501019;
   (1, 1, 0, 0, 0, 0, 0, 1, 0, 1, 0, 0, 0) 0.499099 0.500901;
   (0, 0, 1, 0, 0, 0, 0, 1, 0, 1, 0, 0, 0) 0.339097 0.660903;
   (1, 0, 1, 0, 0, 0, 0, 1, 0, 1, 0, 0, 0) 0.628459 0.371541;
   (0, 1, 1, 0, 0, 0, 0, 1, 0, 1, 0, 0, 0) 0.380791 0.619209;
   (1, 1, 1, 0, 0, 0, 0, 1, 0, 1, 0, 0, 0) 0.382027 0.617973;
   (0, 0, 0, 1, 0, 0, 0, 1, 0, 1, 0, 0, 0) 0.565897 0.434103;
   (1, 0, 0, 1, 0, 0, 0, 1, 0, 1, 0, 0, 0) 0.363407 0.636593;
   (0, 1, 0, 1, 0, 0, 0, 1, 0, 1, 0, 0, 0) 0.291047 0.708953;
   (1, 1, 0, 1, 0, 0, 0, 1, 0, 1, 0, 0, 0) 0.0719057 0.928094;
   (0, 0, 1, 1, 0, 0, 0, 1, 0, 1, 0, 0, 0) 0.934589 0.0654115;
   (1, 0, 1, 1, 0, 0, 0, 1, 0, 1, 0, 0, 0) 0.456477 0.543523;
   (0, 1, 1, 1, 0, 0, 0, 1, 0, 1, 0, 0, 0) 0.518062 0.481938;
   (1, 1, 1, 1, 0, 0, 0, 1, 0, 1, 0, 0, 0) 0.488426 0.511574;
   (0, 0, 0, 0, 1, 0, 0, 1, 0, 1, 0, 0, 0) 0.569428 0.430572;
   (1, 0, 0, 0, 1, 0, 0, 1, 0, 1, 0, 0, 0) 0.704319 0.295681;
   (0, 1, 0, 0, 1, 0, 0, 1, 0, 1, 0, 0, 0) 0.687201 0.312799;
   (1, 1, 0, 0, 1, 0, 0, 1, 0, 1, 0, 0, 0) 0.934657 0.0653427;
   (0, 0, 1, 0, 1, 0, 0, 1, 0, 1, 0, 0, 0) 0.498549 0.501451;
   (1, 0, 1, 0, 1, 0, 0, 1, 0, 1, 0, 0, 0) 0.557995 0.442005;
   (0, 1, 1, 0, 1, 0, 0, 1, 0, 1, 0, 0, 0) 0.467714 0.532286;
   (1, 1, 1, 0, 1, 0, 0, 1, 0, 1, 0, 0, 0) 0.473166 0.526834;
   (0, 0, 0, 1, 1, 0, 0, 1, 0, 1, 0, 0, 0) 0.786627 0.213373;
   (1, 0, 0, 1, 1, 0, 0, 1, 0, 1, 0, 0, 0) 0.966536 0.0334637;
   (0, 1, 0, 1, 1, 0, 0, 1, 0, 1, 0, 0, 0) 0.426694 0.573306;
   (1, 1, 0, 1, 1, 0, 0, 1, 0, 1, 0, 0, 0) 0.297612 0.702388;
   (0, 0, 1, 1, 1, 0, 0, 1, 0, 1, 0, 0, 0) 0.349331 0.650669;
   (1, 0, 1, 1, 1, 0, 0, 1, 0, 1, 0, 0, 0) 0.748258 0.251742;
   (0, 1, 1, 1, 1, 0, 0, 1, 0, 1, 0, 0, 0) 0.284809 0.715191;
   (1, 1, 1, 1, 1, 0, 0, 1, 0, 1, 0, 0, 0) 0.831746 0.168254;
   (0, 0, 0, 0, 0, 1, 0, 1, 0, 1, 0, 0, 0) 0.600377 0.399623;
   (1, 0, 0, 0, 0, 1, 0, 1, 0, 1, 0, 0, 0) 0.317557 0.682443;
   (0, 1, 0, 0, 0, 1, 0, 1, 0, 1, 0, 0, 0) 0.230435 0.769565;
   (1, 1, 0, 0, 0, 1, 0, 1, 0, 1, 0, 0, 0) 0.276196 0.723804;
   (0, 0, 1, 0, 0, 1, 0, 1, 0, 1, 0, 0, 0) 0.484607 0.515393;
   (1, 0, 1, 0, 0, 1, 0, 1, 0, 1, 0, 0, 0) 0.488247 0.511753;
   (0, 1, 1, 0, 0, 1, 0, 1, 0, 1, 0, 0, 0) 0.168332 0.831668;
   (1, 1, 1, 0, 0, 1, 0, 1, 0, 1, 0, 0, 0) 0.573605 0.426395;
   (0, 0, 0, 1, 0, 1, 0, 1, 0, 1, 0, 0, 0) 0.801314 0.198686;
   (1, 0, 0, 1, 0, 1, 0, 1, 0, 1, 0, 0, 0) 0.24857 0.75143;
   (0, 1, 0, 1, 0, 1, 0, 1, 0, 1, 0, 0, 0) 0.472952 0.527048;
   (1, 1, 0, 1, 0, 1, 0, 1, 0, 1, 0, 0, 0) 0.533087 0.466913;
   (0, 0, 1, 1, 0, 1, 0, 1, 0, 1, 0, 0, 0) 0.516144 0.483856;
   (1, 0, 1, 1, 0, 1, 0, 1, 0, 1, 0, 0, 0) 0.0948263 0.905174;
   (0, 1, 1, 1, 0, 1, 0, 1, 0, 1, 0, 0, 0) 0.897732 0.102268;
   (1, 1, 1, 1, 0, 1, 0, 1, 0, 1, 0, 0, 0) 0.835453 0.164547;
   (0, 0, 0, 0, 1, 1, 0, 1, 0, 1, 0, 0, 0) 0.983557 0.0164434;
   (1, 0, 0, 0, 1, 1, 0, 1, 0, 1, 0, 0, 0) 0.0892038 0.910796;
   (0, 1, 0, 0, 1, 1, 0, 1, 0, 1, 0, 0, 0) 0.547985 0.452015;
   (1, 1, 0, 0, 1, 1, 0, 1, 0, 1, 0, 0, 0) 0.0149454 0.985055;
   (0, 0, 1, 0, 1, 1, 0, 1, 0, 1, 0, 0, 0) 0.480613 0.519387;
   (1, 0, 1, 0, 1, 1, 0, 1, 0, 1, 0, 0, 0) 0.375061 0.624939;
   (0, 1, 1, 0, 1, 1, 0, 1, 0, 1, 0, 0, 0) 0.0930023 0.906998;
   (1, 1, 1, 0, 1, 1, 0, 1, 0, 1, 0, 0, 0) 0.400262 0.599738;
   (0, 0, 0, 1, 1, 1, 0, 1, 0, 1, 0, 0, 0) 0.278273 0.721727;
   (1, 0, 0, 1, 1, 1, 0, 1, 0, 1, 0, 0, 0) 0.473318 0.526682;
   (0, 1, 0, 1, 1, 1, 0, 1, 0, 1, 0, 0, 0) 0.476763 0.523237;
   (1, 1, 0, 1, 1, 1, 0, 1, 0, 1, 0, 0, 0) 0.69609 0.30391;
   (0, 0, 1, 1, 1, 1, 0, 1, 0, 1, 0, 0, 0) 0.845088 0.154912;
   (1, 0, 1, 1, 1, 1, 0, 1, 0, 1, 0, 0, 0) 0.587772 0.412228;
   (0, 1, 1, 1, 1, 1, 0, 1, 0, 1, 0, 0, 0) 0.562721 0.437279;
   (1, 1, 1, 1, 1, 1, 0, 1, 0, 1, 0, 0, 0) 0.986062 0.0139377;
   (0, 0, 0, 0, 0, 0, 1, 1, 0, 1, 0, 0, 0) 0.744938 0.255062;
   (1, 0, 0, 0, 0, 0, 1, 1, 0, 1, 0, 0, 0) 0.370038 0.629962;
   (0, 1, 0, 0, 0, 0, 1, 1, 0, 1, 0, 0, 0) 0.490301 0.509699;
   (1, 1, 0, 0, 0, 0, 1, 1, 0, 1, 0, 0, 0) 0.584683 0.415317;
   (0, 0, 1, 0, 0, 0, 1, 1, 0, 1, 0, 0, 0) 0.62828 0.37172;
   (1, 0, 1, 0, 0, 0, 1, 1, 0, 1, 0, 0, 0) 0.24775 0.75225;
   (0, 1, 1, 0, 0, 0, 1, 1, 0, 1, 0, 0, 0) 0.428208 0.571792;
   (1, 1, 1, 0, 0, 0, 1, 1, 0, 1, 0, 0, 0) 0.248638 0.751362;
   (0, 0, 0, 1, 0, 0, 1, 1, 0, 1, 0, 0, 0) 0.926127 0.0738727;
   (1, 0, 0, 1, 0, 0, 1, 1, 0, 1, 0, 0, 0) 0.524739 0.475261;
   (0, 1, 0, 1, 0, 0, 1, 1, 0, 1, 0, 0, 0) 0.921484 0.0785155;
   (1, 1, 0, 1, 0, 0, 1, 1, 0, 1, 0, 0, 0) 0.700088 0.299912;
   (0, 0, 1, 1, 0, 0, 1, 1, 0, 1, 0, 0, 0) 0.909387 0.0906125;
   (1, 0, 1, 1, 0, 0, 1, 1, 0, 1, 0, 0, 0) 0.591839 0.408161;
   (0, 1, 1, 1, 0, 0, 1, 1, 0, 1, 0, 0, 0) 0.440932 0.559068;
   (1, 1, 1, 1, 0, 0, 1, 1, 0, 1, 0, 0, 0) 0.851769 0.148231;
   (0, 0, 0, 0, 1, 0, 1, 1, 0, 1, 0, 0, 0) 0.394378 0.605622;
   (1, 0, 0, 0, 1, 0, 1, 1, 0, 1, 0, 0, 0) 0.454103 0.545897;
   (0, 1, 0, 0, 1, 0, 1, 1, 0, 1, 0, 0, 0) 0.947693 0.0523072;
   (1, 1, 0, 0, 1, 0, 1, 1, 0, 1, 0, 0, 0) 0.0461845 0.953815;
   (0, 0, 1, 0, 1, 0, 1, 1, 0, 1, 0, 0, 0) 0.355681 0.644319;
   (1, 0, 1, 0, 1, 0, 1, 1, 0, 1, 0, 0, 0) 0.680296 0.319704;
   (0, 1, 1, 0, 1, 0, 1, 1, 0, 1, 0, 0, 0) 0.876835 0.123165;
   (1, 1, 1, 0, 1, 0, 1, 1, 0, 1, 0, 0, 0) 0.963349 0.0366514;
   (0, 0, 0, 1, 1, 0, 1, 1, 0, 1, 0, 0, 0) 0.406848 0.593152;
   (1, 0, 0, 1, 1, 0, 1, 1, 0, 1, 0, 0, 0) 0.411599 0.588401;
   (0, 1, 0, 1, 1, 0, 1, 1, 0, 1, 0, 0, 0) 0.575586 0.424414;
   (1, 1, 0, 1, 1, 0, 1, 1, 0, 1, 0, 0, 0) 0.416967 0.583033;
   (0, 0, 1, 1, 1, 0, 1, 1, 0, 1, 0, 0, 0) 0.67255 0.32745;
   (1, 0, 1, 1, 1, 0, 1, 1, 0, 1, 0, 0, 0) 0.80657 0.19343;
   (0, 1, 1, 1, 1, 0, 1, 1, 0, 1, 0, 0, 0) 0.944479 0.0555211;
   (1, 1, 1, 1, 1, 0, 1, 1, 0, 1, 0, 0, 0) 0.705044 0.294956;
   (0, 0, 0, 0, 0, 1, 1, 1, 0, 1, 0, 0, 0) 0.503668 0.496332;
   (1, 0, 0, 0, 0, 1, 1, 1, 0, 1, 0, 0, 0) 0.88037 0.11963;
   (0, 1, 0, 0, 0, 1, 1, 1, 0, 1, 0, 0, 0) 0.665379 0.334621;
   (1, 1, 0, 0, 0, 1, 1, 1, 0, 1, 0, 0, 0) 0.476391 0.523609;
   (0, 0, 1, 0, 0, 1, 1, 1, 0, 1, 0, 0, 0) 0.497232 0.502768;
   (1, 0, 1, 0, 0, 1, 1, 1, 0, 1, 0, 0, 0) 0.248405 0.751595;
   (0, 1, 1, 0, 0, 1, 1, 1, 0, 1, 0, 0, 0) 0.433744 0.566256;
   (1, 1, 1, 0, 0, 1, 1, 1, 0, 1, 0, 0, 0) 0.451033 0.548967;
   (0, 0, 0, 1, 0, 1, 1, 1, 0, 1, 0, 0, 0) 0.853537 0.146463;
   (1, 0, 0, 1, 0, 1, 1, 1, 0, 1, 0, 0, 0) 0.731984 0.268016;
   (0, 1, 0, 1, 0, 1, 1, 1, 0, 1, 0, 0, 0) 0.56409 0.43591;
   (1, 1, 0, 1, 0, 1, 1, 1, 0, 1, 0, 0, 0) 0.535793 0.464207;
   (0, 0, 1, 1, 0, 1, 1, 1, 0, 1, 0, 0, 0) 0.218737 0.781263;
   (1, 0, 1, 1, 0, 1, 1, 1, 0, 1, 0, 0, 0) 0.700051 0.299949;
   (0, 1, 1, 1, 0, 1, 1, 1, 0, 1, 0, 0, 0) 0.659997 0.340003;
   (1, 1, 1, 1, 0, 1, 1, 1, 0, 1, 0, 0, 0) 0.782945 0.217055;
   (0, 0, 0, 0, 1, 1, 1, 1, 0, 1, 0, 0, 0) 0.149215 0.850785;
   (1, 0, 0, 0, 1, 1, 1, 1, 0, 1, 0, 0, 0) 0.551214 0.448786;
   (0, 1, 0, 0, 1, 1, 1, 1, 0, 1, 0, 0, 0) 0.414234 0.585766;
   (1, 1, 0, 0, 1, 1, 1, 1, 0, 1, 0, 0, 0) 0.347144 0.652856;
   (0, 0, 1, 0, 1, 1, 1, 1, 0, 1, 0, 0, 0) 0.256484 0.743516;
   (1, 0, 1, 0, 1, 1, 1, 1, 0, 1, 0, 0, 0) 0.404154 0.595846;
   (0, 1, 1, 0, 1, 1, 1, 1, 0, 1, 0, 0, 0) 0.19568 0.80432;
   (1, 1, 1, 0, 1, 1, 1, 1, 0, 1, 0, 0, 0) 0.0749153 0.925085;
   (0, 0, 0, 1, 1, 1, 1, 1, 0, 1, 0, 0, 0) 0.322352 0.677648;
   (1, 0, 0, 1, 1, 1, 1, 1, 0, 1, 0, 0, 0) 0.327655 0.672345;
   (0, 1, 0, 1, 1, 1, 1, 1, 0, 1, 0, 0, 0) 0.0218536 0.978146;
   (1, 1, 0, 1, 1, 1, 1, 1, 0, 1, 0, 0, 0) 0.484343 0.515657;
   (0, 0, 1, 1, 1, 1, 1, 1, 0, 1, 0, 0, 0) 0.742839 0.257161;
   (1, 0, 1, 1, 1, 1, 1, 1, 0, 1, 0, 0, 0) 0.313024 0.686976;
   (0, 1, 1, 1, 1, 1, 1, 1, 0, 1, 0, 0, 0) 0.108048 0.891952;
   (1, 1, 1, 1, 1, 1, 1, 1, 0, 1, 0, 0, 0) 0.465734 0.534266;
   (0, 0, 0, 0, 0, 0, 0, 0, 1, 1, 0, 0, 0) 0.218564 0.781436;
   (1, 0, 0, 0, 0, 0, 0, 0, 1, 1, 0, 0, 0) 0.700268 0.299732;
   (0, 1, 0, 0, 0, 0, 0, 0, 1, 1, 0, 0, 0) 0.238859 0.761141;
   (1, 1, 0, 0, 0, 0, 0, 0, 1, 1, 0, 0, 0) 0.509415 0.490585;
   (0, 0, 1, 0, 0, 0, 0, 0, 1, 1, 0, 0, 0) 0.798147 0.201853;
   (1, 0, 1, 0, 0, 0, 0, 0, 1, 1, 0, 0, 0) 0.254789 0.745211;
   (0, 1, 1, 0, 0, 0, 0, 0, 1, 1, 0, 0, 0) 0.102685 0.897315;
   (1, 1, 1, 0, 0, 0, 0, 0, 1, 1, 0, 0, 0) 0.409286 0.590714;
   (0, 0, 0, 1, 0, 0, 0, 0, 1, 1, 0, 0, 0) 0.0637115 0.936288;
   (1, 0, 0, 1, 0, 0, 0, 0, 1, 1, 0, 0, 0) 0.931521 0.0684788;
   (0, 1, 0, 1, 0, 0, 0, 0, 1, 1, 0, 0, 0) 0.320303 0.679697;
   (1, 1, 0, 1, 0, 0, 0, 0, 1, 1, 0, 0, 0) 0.788424 0.211576;
   (0, 0, 1, 1, 0, 0, 0, 0, 1, 1, 0, 0, 0) 0.243119 0.756881;
   (1, 0, 1, 1, 0, 0, 0, 0, 1, 1, 0, 0, 0) 0.364707 0.635293;
   (0, 1, 1, 1, 0, 0, 0, 0, 1, 1, 0, 0, 0) 0.0821732 0.917827;
   (1, 1, 1, 1, 0, 0, 0, 0, 1, 1, 0, 0, 0) 0.398373 0.601627;
   (0, 0, 0, 0, 1, 0, 0, 0, 1, 1, 0, 0, 0) 0.21125 0.78875;
   (1, 0, 0, 0, 1, 0, 0, 0, 1, 1, 0, 0, 0) 0.135164 0.864836;
   (0, 1, 0, 0, 1, 0, 0, 0, 1, 1, 0, 0, 0) 0.456049 0.543951;
   (1, 1, 0, 0, 1, 0, 0, 0, 1, 1, 0, 0, 0) 0.0861495 0.91385;
   (0, 0, 1, 0, 1, 0, 0, 0, 1, 1, 0, 0, 0) 0.539546 0.460454;
   (1, 0, 1, 0, 1, 0, 0, 0, 1, 1, 0, 0, 0) 0.881768 0.118232;
   (0, 1, 1, 0, 1, 0, 0, 0, 1, 1, 0, 0, 0) 0.771154 0.228846;
   (1, 1, 1, 0, 1, 0, 0, 0, 1, 1, 0, 0, 0) 0.558162 0.441838;
   (0, 0, 0, 1, 1, 0, 0, 0, 1, 1, 0, 0, 0) 0.500087 0.499913;
   (1, 0, 0, 1, 1, 0, 0, 0, 1, 1, 0, 0, 0) 0.46972 0.53028;
   (0, 1, 0, 1, 1, 0, 0, 0, 1, 1, 0, 0, 0) 0.585844 0.414156;
   (1, 1, 0, 1, 1, 0, 0, 0, 1, 1, 0, 0, 0) 0.916061 0.0839387;
   (0, 0, 1, 1, 1, 0, 0, 0, 1, 1, 0, 0, 0) 0.419524 0.580476;
   (1, 0, 1, 1, 1, 0, 0, 0, 1, 1, 0, 0, 0) 0.628057 0.371943;
   (0, 1, 1, 1, 1, 0, 0, 0, 1, 1, 0, 0, 0) 0.717846 0.282154;
   (1, 1, 1, 1, 1, 0, 0, 0, 1, 1, 0, 0, 0) 0.711652 0.288348;
   (0, 0, 0, 0, 0, 1, 0, 0, 1, 1, 0, 0, 0) 0.566762 0.433238;
   (1, 0, 0, 0, 0, 1, 0, 0, 1, 1, 0, 0, 0) 0.97566 0.02434;
   (0, 1, 0, 0, 0, 1, 0, 0, 1, 1, 0, 0, 0) 0.181634 0.818366;
   (1, 1, 0, 0, 0, 1, 0, 0, 1, 1, 0, 0, 0) 0.522667 0.477333;
   (0, 0, 1, 0, 0, 1, 0, 0, 1, 1, 0, 0, 0) 0.54967 0.45033;
   (1, 0, 1, 0, 0, 1, 0, 0, 1, 1, 0, 0, 0) 0.717454 0.282546;
   (0, 1, 1, 0, 0, 1, 0, 0, 1, 1, 0, 0, 0) 0.395698 0.604302;
   (1, 1, 1, 0, 0, 1, 0, 0, 1, 1, 0, 0, 0) 0.818819 0.181181;
   (0, 0, 0, 1, 0, 1, 0, 0, 1, 1, 0, 0, 0) 0.94924 0.0507603;
   (1, 0, 0, 1, 0, 1, 0, 0, 1, 1, 0, 0, 0) 0.399534 0.600466;
   (0, 1, 0, 1, 0, 1, 0, 0, 1, 1, 0, 0, 0) 0.71421 0.28579;
   (1, 1, 0, 1, 0, 1, 0, 0, 1, 1, 0, 0, 0) 0.690932 0.309068;
   (0, 0, 1, 1, 0, 1, 0, 0, 1, 1, 0, 0, 0) 0.486619 0.513381;
   (1, 0, 1, 1, 0, 1, 0, 0, 1, 1, 0, 0, 0) 0.380691 0.619309;
   (0, 1, 1, 1, 0, 1, 0, 0, 1, 1, 0, 0, 0) 0.460432 0.539568;
   (1, 1, 1, 1, 0, 1, 0, 0, 1, 1, 0, 0, 0) 0.71868 0.28132;
   (0, 0, 0, 0, 1, 1, 0, 0, 1, 1, 0, 0, 0) 0.27578 0.72422;
   (1, 0, 0, 0, 1, 1, 0, 0, 1, 1, 0, 0, 0) 0.421155 0.578845;
   (0, 1, 0, 0, 1, 1, 0, 0, 1, 1, 0, 0, 0) 0.363978 0.636022;
   (1, 1, 0, 0, 1, 1, 0, 0, 1, 1, 0, 0, 0) 0.570001 0.429999;
   (0, 0, 1, 0, 1, 1, 0, 0, 1, 1, 0, 0, 0) 0.257384 0.742616;
   (1, 0, 1, 0, 1, 1, 0, 0, 1, 1, 0, 0, 0) 0.445972 0.554028;
   (0, 1, 1, 0, 1, 1, 0, 0, 1, 1, 0, 0, 0) 0.380869 0.619131;
   (1, 1, 1, 0, 1, 1, 0, 0, 1, 1, 0, 0, 0) 0.62062 0.37938;
   (0, 0, 0, 1, 1, 1, 0, 0, 1, 1, 0, 0, 0) 0.995857 0.00414305;
   (1, 0, 0, 1, 1, 1, 0, 0, 1, 1, 0, 0, 0) 0.553694 0.446306;
   (0, 1, 0, 1, 1, 1, 0, 0, 1, 1, 0, 0, 0) 0.318025 0.681975;
   (1, 1, 0, 1, 1, 1, 0, 0, 1, 1, 0, 0, 0) 0.274371 0.725629;
   (0, 0, 1, 1, 1, 1, 0, 0, 1, 1, 0, 0, 0) 0.337395 0.662605;
   (1, 0, 1, 1, 1, 1, 0, 0, 1, 1, 0, 0, 0) 0.42369 0.57631;
   (0, 1, 1, 1, 1, 1, 0, 0, 1, 1, 0, 0, 0) 0.473983 0.526017;
   (1, 1, 1, 1, 1, 1, 0, 0, 1, 1, 0, 0, 0) 0.147118 0.852882;
   (0, 0, 0, 0, 0, 0, 1, 0, 1, 1, 0, 0, 0) 0.974211 0.0257886;
   (1, 0, 0, 0, 0, 0, 1, 0, 1, 1, 0, 0, 0) 0.807645 0.192355;
   (0, 1, 0, 0, 0, 0, 1, 0, 1, 1, 0, 0, 0) 0.807021 0.192979;
   (1, 1, 0, 0, 0, 0, 1, 0, 1, 1, 0, 0, 0) 0.792085 0.207915;
   (0, 0, 1, 0, 0, 0, 1, 0, 1, 1, 0, 0, 0) 0.637637 0.362363;
   (1, 0, 1, 0, 0, 0, 1, 0, 1, 1, 0, 0, 0) 0.84101 0.15899;
   (0, 1, 1, 0, 0, 0, 1, 0, 1, 1, 0, 0, 0) 0.271773 0.728227;
   (1, 1, 1, 0, 0, 0, 1, 0, 1, 1, 0, 0, 0) 0.00947334 0.990527;
   (0, 0, 0, 1, 0, 0, 1, 0, 1, 1, 0, 0, 0) 0.543667 0.456333;
   (1, 0, 0, 1, 0, 0, 1, 0, 1, 1, 0, 0, 0) 0.584906 0.415094;
   (0, 1, 0, 1, 0, 0, 1, 0, 1, 1, 0, 0, 0) 0.621611 0.378389;
   (1, 1, 0, 1, 0, 0, 1, 0, 1, 1, 0, 0, 0) 0.189238 0.810762;
   (0, 0, 1, 1, 0, 0, 1, 0, 1, 1, 0, 0, 0) 0.553466 0.446534;
   (1, 0, 1, 1, 0, 0, 1, 0, 1, 1, 0, 0, 0) 0.981427 0.0185734;
   (0, 1, 1, 1, 0, 0, 1, 0, 1, 1, 0, 0, 0) 0.430664 0.569336;
   (1, 1, 1, 1, 0, 0, 1, 0, 1, 1, 0, 0, 0) 0.832631 0.167369;
   (0, 0, 0, 0, 1, 0, 1, 0, 1, 1, 0, 0, 0) 0.713401 0.286599;
   (1, 0, 0, 0, 1, 0, 1, 0, 1, 1, 0, 0, 0) 0.337175 0.662825;
   (0, 1, 0, 0, 1, 0, 1, 0, 1, 1, 0, 0, 0) 0.336391 0.663609;
   (1, 1, 0, 0, 1, 0, 1, 0, 1, 1, 0, 0, 0) 0.27888 0.72112;
   (0, 0, 1, 0, 1, 0, 1, 0, 1, 1, 0, 0, 0) 0.493 0.507;
   (1, 0, 1, 0, 1, 0, 1, 0, 1, 1, 0, 0, 0) 0.367915 0.632085;
   (0, 1, 1, 0, 1, 0, 1, 0, 1, 1, 0, 0, 0) 0.109567 0.890433;
   (1, 1, 1, 0, 1, 0, 1, 0, 1, 1, 0, 0, 0) 0.157228 0.842772;
   (0, 0, 0, 1, 1, 0, 1, 0, 1, 1, 0, 0, 0) 0.856286 0.143714;
   (1, 0, 0, 1, 1, 0, 1, 0, 1, 1, 0, 0, 0) 0.464502 0.535498;
   (0, 1, 0, 1, 1, 0, 1, 0, 1, 1, 0, 0, 0) 0.406245 0.593755;
   (1, 1, 0, 1, 1, 0, 1, 0, 1, 1, 0, 0, 0) 0.509068 0.490932;
   (0, 0, 1, 1, 1, 0, 1, 0, 1, 1, 0, 0, 0) 0.425821 0.574179;
   (1, 0, 1, 1, 1, 0, 1, 0, 1, 1, 0, 0, 0) 0.431139 0.568861;
   (0, 1, 1, 1, 1, 0, 1, 0, 1, 1, 0, 0, 0) 0.372538 0.627462;
   (1, 1, 1, 1, 1, 0, 1, 0, 1, 1, 0, 0, 0) 0.466881 0.533119;
   (0, 0, 0, 0, 0, 1, 1, 0, 1, 1, 0, 0, 0) 0.964318 0.0356822;
   (1, 0, 0, 0, 0, 1, 1, 0, 1, 1, 0, 0, 0) 0.229665 0.770335;
   (0, 1, 0, 0, 0, 1, 1, 0, 1, 1, 0, 0, 0) 0.228427 0.771573;
   (1, 1, 0, 0, 0, 1, 1, 0, 1, 1, 0, 0, 0) 0.499823 0.500177;
   (0, 0, 1, 0, 0, 1, 1, 0, 1, 1, 0, 0, 0) 0.769848 0.230152;
   (1, 0, 1, 0, 0, 1, 1, 0, 1, 1, 0, 0, 0) 0.517249 0.482751;
   (0, 1, 1, 0, 0, 1, 1, 0, 1, 1, 0, 0, 0) 0.164174 0.835826;
   (1, 1, 1, 0, 0, 1, 1, 0, 1, 1, 0, 0, 0) 0.221771 0.778229;
   (0, 0, 0, 1, 0, 1, 1, 0, 1, 1, 0, 0, 0) 0.430795 0.569205;
   (1, 0, 0, 1, 0, 1, 1, 0, 1, 1, 0, 0, 0) 0.114651 0.885349;
   (0, 1, 0, 1, 0, 1, 1, 0, 1, 1, 0, 0, 0) 0.519887 0.480113;
   (1, 1, 0, 1, 0, 1, 1, 0, 1, 1, 0, 0, 0) 0.912308 0.0876916;
   (0, 0, 1, 1, 0, 1, 1, 0, 1, 1, 0, 0, 0) 0.172691 0.827309;
   (1, 0, 1, 1, 0, 1, 1, 0, 1, 1, 0, 0, 0) 0.146027 0.853973;
   (0, 1, 1, 1, 0, 1, 1, 0, 1, 1, 0, 0, 0) 0.4722 0.5278;
   (1, 1, 1, 1, 0, 1, 1, 0, 1, 1, 0, 0, 0) 0.577552 0.422448;
   (0, 0, 0, 0, 1, 1, 1, 0, 1, 1, 0, 0, 0) 0.468116 0.531884;
   (1, 0, 0, 0, 1, 1, 1, 0, 1, 1, 0, 0, 0) 0.385604 0.614396;
   (0, 1, 0, 0, 1, 1, 1, 0, 1, 1, 0, 0, 0) 0.138763 0.861237;
   (1, 1, 0, 0, 1, 1, 1, 0, 1, 1, 0, 0, 0) 0.687319 0.312681;
   (0, 0, 1, 0, 1, 1, 1, 0, 1, 1, 0, 0, 0) 0.636692 0.363308;
   (1, 0, 1, 0, 1, 1, 1, 0, 1, 1, 0, 0, 0) 0.496985 0.503015;
   (0, 1, 1, 0, 1, 1, 1, 0, 1, 1, 0, 0, 0) 0.274013 0.725987;
   (1, 1, 1, 0, 1, 1, 1, 0, 1, 1, 0, 0, 0) 0.33194 0.66806;
   (0, 0, 0, 1, 1, 1, 1, 0, 1, 1, 0, 0, 0) 0.133734 0.866266;
   (1, 0, 0, 1, 1, 1, 1, 0, 1, 1, 0, 0, 0) 0.599384 0.400616;
   (0, 1, 0, 1, 1, 1, 1, 0, 1, 1, 0, 0, 0) 0.759223 0.240777;
   (1, 1, 0, 1, 1, 1, 1, 0, 1, 1, 0, 0, 0) 0.752289 0.247711;
   (0, 0, 1, 1, 1, 1, 1, 0, 1, 1, 0, 0, 0) 0.414089 0.585911;
   (1, 0, 1, 1, 1, 1, 1, 0, 1, 1, 0, 0, 0) 0.740265 0.259735;
   (0, 1, 1, 1, 1, 1, 1, 0, 1, 1, 0, 0, 0) 0.409943 0.590057;
   (1, 1, 1, 1, 1, 1, 1, 0, 1, 1, 0, 0, 0) 0.818669 0.181331;
   (0, 0, 0, 0, 0, 0, 0, 1, 1, 1, 0, 0, 0) 0.480811 0.519189;
   (1, 0, 0, 0, 0, 0, 0, 1, 1, 1, 0, 0, 0) 0.805638 0.194362;
   (0, 1, 0, 0, 0, 0, 0, 1, 1, 1, 0, 0, 0) 0.0148628 0.985137;
   (1, 1, 0, 0, 0, 0, 0, 1, 1, 1, 0, 0, 0) 0.42936 0.57064;
   (0, 0, 1, 0, 0, 0, 0, 1, 1, 1, 0, 0, 0) 0.724712 0.275288;
   (1, 0, 1, 0, 0, 0, 0, 1, 1, 1, 0, 0, 0) 0.517937 0.482063;
   (0, 1, 1, 0, 0, 0, 0, 1, 1, 1, 0, 0, 0) 0.382202 0.617798;
   (1, 1, 1, 0, 0, 0, 0, 1, 1, 1, 0, 0, 0) 0.286795 0.713205;
   (0, 0, 0, 1, 0, 0, 0, 1, 1, 1, 0, 0, 0) 0.493856 0.506144;
   (1, 0, 0, 1, 0, 0, 0, 1, 1, 1, 0, 0, 0) 0.557133 0.442867;
   (0, 1, 0, 1, 0, 0, 0, 1, 1, 1, 0, 0, 0) 0.584674 0.415326;
   (1, 1, 0, 1, 0, 0, 0, 1, 1, 1, 0, 0, 0) 0.411048 0.588952;
   (0, 0, 1, 1, 0, 0, 0, 1, 1, 1, 0, 0, 0) 0.907636 0.092364;
   (1, 0, 1, 1, 0, 0, 0, 1, 1, 1, 0, 0, 0) 0.334803 0.665197;
   (0, 1, 1, 1, 0, 0, 0, 1, 1, 1, 0, 0, 0) 0.944054 0.0559464;
   (1, 1, 1, 1, 0, 0, 0, 1, 1, 1, 0, 0, 0) 0.233425 0.766575;
   (0, 0, 0, 0, 1, 0, 0, 1, 1, 1, 0, 0, 0) 0.512964 0.487036;
   (1, 0, 0, 0, 1, 0, 0, 1, 1, 1, 0, 0, 0) 0.574997 0.425003;
   (0, 1, 0, 0, 1, 0, 0, 1, 1, 1, 0, 0, 0) 0.622975 0.377025;
   (1, 1, 0, 0, 1, 0, 0, 1, 1, 1, 0, 0, 0) 0.689647 0.310353;
   (0, 0, 1, 0, 1, 0, 0, 1, 1, 1, 0, 0, 0) 0.245983 0.754017;
   (1, 0, 1, 0, 1, 0, 0, 1, 1, 1, 0, 0, 0) 0.696965 0.303035;
   (0, 1, 1, 0, 1, 0, 0, 1, 1, 1, 0, 0, 0) 0.90102 0.0989798;
   (1, 1, 1, 0, 1, 0, 0, 1, 1, 1, 0, 0, 0) 0.394098 0.605902;
   (0, 0, 0, 1, 1, 0, 0, 1, 1, 1, 0, 0, 0) 0.531774 0.468226;
   (1, 0, 0, 1, 1, 0, 0, 1, 1, 1, 0, 0, 0) 0.202512 0.797488;
   (0, 1, 0, 1, 1, 0, 0, 1, 1, 1, 0, 0, 0) 0.694101 0.305899;
   (1, 1, 0, 1, 1, 0, 0, 1, 1, 1, 0, 0, 0) 0.480288 0.519712;
   (0, 0, 1, 1, 1, 0, 0, 1, 1, 1, 0, 0, 0) 0.415129 0.584871;
   (1, 0, 1, 1, 1, 0, 0, 1, 1, 1, 0, 0, 0) 0.421151 0.578849;
   (0, 1, 1, 1, 1, 0, 0, 1, 1, 1, 0, 0, 0) 0.763213 0.236787;
   (1, 1, 1, 1, 1, 0, 0, 1, 1, 1, 0, 0, 0) 0.699135 0.300865;
   (0, 0, 0, 0, 0, 1, 0, 1, 1, 1, 0, 0, 0) 0.278702 0.721298;
   (1, 0, 0, 0, 0, 1, 0, 1, 1, 1, 0, 0, 0) 0.694509 0.305491;
   (0, 1, 0, 0, 0, 1, 0, 1, 1, 1, 0, 0, 0) 0.610081 0.389919;
   (1, 1, 0, 0, 0, 1, 0, 1, 1, 1, 0, 0, 0) 0.757505 0.242495;
   (0, 0, 1, 0, 0, 1, 0, 1, 1, 1, 0, 0, 0) 0.429361 0.570639;
   (1, 0, 1, 0, 0, 1, 0, 1, 1, 1, 0, 0, 0) 0.577532 0.422468;
   (0, 1, 1, 0, 0, 1, 0, 1, 1, 1, 0, 0, 0) 0.532536 0.467464;
   (1, 1, 1, 0, 0, 1, 0, 1, 1, 1, 0, 0, 0) 0.458568 0.541432;
   (0, 0, 0, 1, 0, 1, 0, 1, 1, 1, 0, 0, 0) 0.458472 0.541528;
   (1, 0, 0, 1, 0, 1, 0, 1, 1, 1, 0, 0, 0) 0.717369 0.282631;
   (0, 1, 0, 1, 0, 1, 0, 1, 1, 1, 0, 0, 0) 0.589681 0.410319;
   (1, 1, 0, 1, 0, 1, 0, 1, 1, 1, 0, 0, 0) 0.592264 0.407736;
   (0, 0, 1, 1, 0, 1, 0, 1, 1, 1, 0, 0, 0) 0.716576 0.283424;
   (1, 0, 1, 1, 0, 1, 0, 1, 1, 1, 0, 0, 0) 0.356999 0.643001;
   (0, 1, 1, 1, 0, 1, 0, 1, 1, 1, 0, 0, 0) 0.439697 0.560303;
   (1, 1, 1, 1, 0, 1, 0, 1, 1, 1, 0, 0, 0) 0.530745 0.469255;
   (0, 0, 0, 0, 1, 1, 0, 1, 1, 1, 0, 0, 0) 0.816682 0.183318;
   (1, 0, 0, 0, 1, 1, 0, 1, 1, 1, 0, 0, 0) 0.133029 0.866971;
   (0, 1, 0, 0, 1, 1, 0, 1, 1, 1, 0, 0, 0) 0.470468 0.529532;
   (1, 1, 0, 0, 1, 1, 0, 1, 1, 1, 0, 0, 0) 0.333882 0.666118;
   (0, 0, 1, 0, 1, 1, 0, 1, 1, 1, 0, 0, 0) 0.190868 0.809132;
   (1, 0, 1, 0, 1, 1, 0, 1, 1, 1, 0, 0, 0) 0.895927 0.104073;
   (0, 1, 1, 0, 1, 1, 0, 1, 1, 1, 0, 0, 0) 0.947563 0.0524375;
   (1, 1, 1, 0, 1, 1, 0, 1, 1, 1, 0, 0, 0) 0.183899 0.816101;
   (0, 0, 0, 1, 1, 1, 0, 1, 1, 1, 0, 0, 0) 0.982272 0.0177282;
   (1, 0, 0, 1, 1, 1, 0, 1, 1, 1, 0, 0, 0) 0.666959 0.333041;
   (0, 1, 0, 1, 1, 1, 0, 1, 1, 1, 0, 0, 0) 0.46112 0.53888;
   (1, 1, 0, 1, 1, 1, 0, 1, 1, 1, 0, 0, 0) 0.26526 0.73474;
   (0, 0, 1, 1, 1, 1, 0, 1, 1, 1, 0, 0, 0) 0.0614287 0.938571;
   (1, 0, 1, 1, 1, 1, 0, 1, 1, 1, 0, 0, 0) 0.0401317 0.959868;
   (0, 1, 1, 1, 1, 1, 0, 1, 1, 1, 0, 0, 0) 0.0434796 0.95652;
   (1, 1, 1, 1, 1, 1, 0, 1, 1, 1, 0, 0, 0) 0.330329 0.669671;
   (0, 0, 0, 0, 0, 0, 1, 1, 1, 1, 0, 0, 0) 0.170733 0.829267;
   (1, 0, 0, 0, 0, 0, 1, 1, 1, 1, 0, 0, 0) 0.508813 0.491187;
   (0, 1, 0, 0, 0, 0, 1, 1, 1, 1, 0, 0, 0) 0.784847 0.215153;
   (1, 1, 0, 0, 0, 0, 1, 1, 1, 1, 0, 0, 0) 0.424424 0.575576;
   (0, 0, 1, 0, 0, 0, 1, 1, 1, 1, 0, 0, 0) 0.260335 0.739665;
   (1, 0, 1, 0, 0, 0, 1, 1, 1, 1, 0, 0, 0) 0.630803 0.369197;
   (0, 1, 1, 0, 0, 0, 1, 1, 1, 1, 0, 0, 0) 0.755692 0.244308;
   (1, 1, 1, 0, 0, 0, 1, 1, 1, 1, 0, 0, 0) 0.335631 0.664369;
   (0, 0, 0, 1, 0, 0, 1, 1, 1, 1, 0, 0, 0) 0.653524 0.346476;
   (1, 0, 0, 1, 0, 0, 1, 1, 1, 1, 0, 0, 0) 0.571936 0.428064;
   (0, 1, 0, 1, 0, 0, 1, 1, 1, 1, 0, 0, 0) 0.721943 0.278057;
   (1, 1, 0, 1, 0, 0, 1, 1, 1, 1, 0, 0, 0) 0.467366 0.532634;
   (0, 0, 1, 1, 0, 0, 1, 1, 1, 1, 0, 0, 0) 0.523674 0.476326;
   (1, 0, 1, 1, 0, 0, 1, 1, 1, 1, 0, 0, 0) 0.461089 0.538911;
   (0, 1, 1, 1, 0, 0, 1, 1, 1, 1, 0, 0, 0) 0.046515 0.953485;
   (1, 1, 1, 1, 0, 0, 1, 1, 1, 1, 0, 0, 0) 0.482243 0.517757;
   (0, 0, 0, 0, 1, 0, 1, 1, 1, 1, 0, 0, 0) 0.339993 0.660007;
   (1, 0, 0, 0, 1, 0, 1, 1, 1, 1, 0, 0, 0) 0.840196 0.159804;
   (0, 1, 0, 0, 1, 0, 1, 1, 1, 1, 0, 0, 0) 0.134999 0.865001;
   (1, 1, 0, 0, 1, 0, 1, 1, 1, 1, 0, 0, 0) 0.559871 0.440129;
   (0, 0, 1, 0, 1, 0, 1, 1, 1, 1, 0, 0, 0) 0.321909 0.678091;
   (1, 0, 1, 0, 1, 0, 1, 1, 1, 1, 0, 0, 0) 0.653094 0.346906;
   (0, 1, 1, 0, 1, 0, 1, 1, 1, 1, 0, 0, 0) 0.856472 0.143528;
   (1, 1, 1, 0, 1, 0, 1, 1, 1, 1, 0, 0, 0) 0.354535 0.645465;
   (0, 0, 0, 1, 1, 0, 1, 1, 1, 1, 0, 0, 0) 0.727127 0.272873;
   (1, 0, 0, 1, 1, 0, 1, 1, 1, 1, 0, 0, 0) 0.226071 0.773929;
   (0, 1, 0, 1, 1, 0, 1, 1, 1, 1, 0, 0, 0) 0.527606 0.472394;
   (1, 1, 0, 1, 1, 0, 1, 1, 1, 1, 0, 0, 0) 0.900144 0.0998558;
   (0, 0, 1, 1, 1, 0, 1, 1, 1, 1, 0, 0, 0) 0.902604 0.0973955;
   (1, 0, 1, 1, 1, 0, 1, 1, 1, 1, 0, 0, 0) 0.677026 0.322974;
   (0, 1, 1, 1, 1, 0, 1, 1, 1, 1, 0, 0, 0) 0.791371 0.208629;
   (1, 1, 1, 1, 1, 0, 1, 1, 1, 1, 0, 0, 0) 0.764993 0.235007;
   (0, 0, 0, 0, 0, 1, 1, 1, 1, 1, 0, 0, 0) 0.773781 0.226219;
   (1, 0, 0, 0, 0, 1, 1, 1, 1, 1, 0, 0, 0) 0.308136 0.691864;
   (0, 1, 0, 0, 0, 1, 1, 1, 1, 1, 0, 0, 0) 0.832923 0.167077;
   (1, 1, 0, 0, 0, 1, 1, 1, 1, 1, 0, 0, 0) 0.995691 0.00430911;
   (0, 0, 1, 0, 0, 1, 1, 1, 1, 1, 0, 0, 0) 0.559727 0.440273;
   (1, 0, 1, 0, 0, 1, 1, 1, 1, 1, 0, 0, 0) 0.37501 0.62499;
   (0, 1, 1, 0, 0, 1, 1, 1, 1, 1, 0, 0, 0) 0.146231 0.853769;
   (1, 1, 1, 0, 0, 1, 1, 1, 1, 1, 0, 0, 0) 0.694494 0.305506;
   (0, 0, 0, 1, 0, 1, 1, 1, 1, 1, 0, 0, 0) 0.805515 0.194485;
   (1, 0, 0, 1, 0, 1, 1, 1, 1, 1, 0, 0, 0) 0.222515 0.777485;
   (0, 1, 0, 1, 0, 1, 1, 1, 1, 1, 0, 0, 0) 0.524141 0.475859;
   (1, 1, 0, 1, 0, 1, 1, 1, 1, 1, 0, 0, 0) 0.500573 0.499427;
   (0, 0, 1, 1, 0, 1, 1, 1, 1, 1, 0, 0, 0) 0.410933 0.589067;
   (1, 0, 1, 1, 0, 1, 1, 1, 1, 1, 0, 0, 0) 0.689969 0.310031;
   (0, 1, 1, 1, 0, 1, 1, 1, 1, 1, 0, 0, 0) 0.653669 0.346331;
   (1, 1, 1, 1, 0, 1, 1, 1, 1, 1, 0, 0, 0) 0.782844 0.217156;
   (0, 0, 0, 0, 1, 1, 1, 1, 1, 1, 0, 0, 0) 0.528681 0.471319;
   (1, 0, 0, 0, 1, 1, 1, 1, 1, 1, 0, 0, 0) 0.539654 0.460346;
   (0, 1, 0, 0, 1, 1, 1, 1, 1, 1, 0, 0, 0) 0.72506 0.27494;
   (1, 1, 0, 0, 1, 1, 1, 1, 1, 1, 0, 0, 0) 0.0656898 0.93431;
   (0, 0, 1, 0, 1, 1, 1, 1, 1, 1, 0, 0, 0) 0.491962 0.508038;
   (1, 0, 1, 0, 1, 1, 1, 1, 1, 1, 0, 0, 0) 0.286955 0.713045;
   (0, 1, 1, 0, 1, 1, 1, 1, 1, 1, 0, 0, 0) 0.558879 0.441121;
   (1, 1, 1, 0, 1, 1, 1, 1, 1, 1, 0, 0, 0) 0.550859 0.449141;
   (0, 0, 0, 1, 1, 1, 1, 1, 1, 1, 0, 0, 0) 0.0397696 0.96023;
   (1, 0, 0, 1, 1, 1, 1, 1, 1, 1, 0, 0, 0) 0.829466 0.170534;
   (0, 1, 0, 1, 1, 1, 1, 1, 1, 1, 0, 0, 0) 0.527393 0.472607;
   (1, 1, 0, 1, 1, 1, 1, 1, 1, 1, 0, 0, 0) 0.839427 0.160573;
   (0, 0, 1, 1, 1, 1, 1, 1, 1, 1, 0, 0, 0) 0.653184 0.346816;
   (1, 0, 1, 1, 1, 1, 1, 1, 1, 1, 0, 0, 0) 0.291874 0.708126;
   (0, 1, 1, 1, 1, 1, 1, 1, 1, 1, 0, 0, 0) 0.389936 0.610064;
   (1, 1, 1, 1, 1, 1, 1, 1, 1, 1, 0, 0, 0) 0.85416 0.14584;
   (0, 0, 0, 0, 0, 0, 0, 0, 0, 0, 1, 0, 0) 0.855891 0.144109;
   (1, 0, 0, 0, 0, 0, 0, 0, 0, 0, 1, 0, 0) 0.334259 0.665741;
   (0, 1, 0, 0, 0, 0, 0, 0, 0, 0, 1, 0, 0) 0.100582 0.899418;
   (1, 1, 0, 0, 0, 0, 0, 0, 0, 0, 1, 0, 0) 0.132889 0.867111;
   (0, 0, 1, 0, 0, 0, 0, 0, 0, 0, 1, 0, 0) 0.357111 0.642889;
   (1, 0, 1, 0, 0, 0, 0, 0, 0, 0, 1, 0, 0) 0.507363 0.492637;
   (0, 1, 1, 0, 0, 0, 0, 0, 0, 0, 1, 0, 0) 0.500316 0.499684;
   (1, 1, 1, 0, 0, 0, 0, 0, 0, 0, 1, 0, 0) 0.830227 0.169773;
   (0, 0, 0, 1, 0, 0, 0, 0, 0, 0, 1, 0, 0) 0.172607 0.827393;
   (1, 0, 0, 1, 0, 0, 0, 0, 0, 0, 1, 0, 0) 0.49212 0.50788;
   (0, 1, 0, 1, 0, 0, 0, 0, 0, 0, 1, 0, 0) 0.138342 0.861658;
   (1, 1, 0, 1, 0, 0, 0, 0, 0, 0, 1, 0, 0) 0.283231 0.716769;
   (0, 0, 1, 1, 0, 0, 0, 0, 0, 0, 1, 0, 0) 0.918454 0.0815461;
   (1, 0, 1, 1, 0, 0, 0, 0, 0, 0, 1, 0, 0) 0.516806 0.483194;
   (0, 1, 1, 1, 0, 0, 0, 0, 0, 0, 1, 0, 0) 0.149123 0.850877;
   (1, 1, 1, 1, 0, 0, 0, 0, 0, 0, 1, 0, 0) 0.512293 0.487707;
   (0, 0, 0, 0, 1, 0, 0, 0, 0, 0, 1, 0, 0) 0.411104 0.588896;
   (1, 0, 0, 0, 1, 0, 0, 0, 0, 0, 1, 0, 0) 0.188666 0.811334;
   (0, 1, 0, 0, 1, 0, 0, 0, 0, 0, 1, 0, 0) 0.888643 0.111357;
   (1, 1, 0, 0, 1, 0, 0, 0, 0, 0, 1, 0, 0) 0.318346 0.681654;
   (0, 0, 1, 0, 1, 0, 0, 0, 0, 0, 1, 0, 0) 0.326606 0.673394;
   (1, 0, 1, 0, 1, 0, 0, 0, 0, 0, 1, 0, 0) 0.0396524 0.960348;
   (0, 1, 1, 0, 1, 0, 0, 0, 0, 0, 1, 0, 0) 0.674937 0.325063;
   (1, 1, 1, 0, 1, 0, 0, 0, 0, 0, 1, 0, 0) 0.76962 0.23038;
   (0, 0, 0, 1, 1, 0, 0, 0, 0, 0, 1, 0, 0) 0.57085 0.42915;
   (1, 0, 0, 1, 1, 0, 0, 0, 0, 0, 1, 0, 0) 0.542272 0.457728;
   (0, 1, 0, 1, 1, 0, 0, 0, 0, 0, 1, 0, 0) 0.426126 0.573874;
   (1, 1, 0, 1, 1, 0, 0, 0, 0, 0, 1, 0, 0) 0.608521 0.391479;
   (0, 0, 1, 1, 1, 0, 0, 0, 0, 0, 1, 0, 0) 0.509731 0.490269;
   (1, 0, 1, 1, 1, 0, 0, 0, 0, 0, 1, 0, 0) 0.633895 0.366105;
   (0, 1, 1, 1, 1, 0, 0, 0, 0, 0, 1, 0, 0) 0.538394 0.461606;
   (1, 1, 1, 1, 1, 0, 0, 0, 0, 0, 1, 0, 0) 0.640531 0.359469;
   (0, 0, 0, 0, 0, 1, 0, 0, 0, 0, 1, 0, 0) 0.498007 0.501993;
   (1, 0, 0, 0, 0, 1, 0, 0, 0, 0, 1, 0, 0) 0.426266 0.573734;
   (0, 1, 0, 0, 0, 1, 0, 0, 0, 0, 1, 0, 0) 0.615448 0.384552;
   (1, 1, 0, 0, 0, 1, 0, 0, 0, 0, 1, 0, 0) 0.122844 0.877156;
   (0, 0, 1, 0, 0, 1, 0, 0, 0, 0, 1, 0, 0) 0.429169 0.570831;
   (1, 0, 1, 0, 0, 1, 0, 0, 0, 0, 1, 0, 0) 0.682439 0.317561;
   (0, 1, 1, 0, 0, 1, 0, 0, 0, 0, 1, 0, 0) 0.458595 0.541405;
   (1, 1, 1, 0, 0, 1, 0, 0, 0, 0, 1, 0, 0) 0.382273 0.617727;
   (0, 0, 0, 1, 0, 1, 0, 0, 0, 0, 1, 0, 0) 0.850454 0.149546;
   (1, 0, 0, 1, 0, 1, 0, 0, 0, 0, 1, 0, 0) 0.340049 0.659951;
   (0, 1, 0, 1, 0, 1, 0, 0, 0, 0, 1, 0, 0) 0.489471 0.510529;
   (1, 1, 0, 1, 0, 1, 0, 0, 0, 0, 1, 0, 0) 0.41625 0.58375;
   (0, 0, 1, 1, 0, 1, 0, 0, 0, 0, 1, 0, 0) 0.458638 0.541362;
   (1, 0, 1, 1, 0, 1, 0, 0, 0, 0, 1, 0, 0) 0.6624 0.3376;
   (0, 1, 1, 1, 0, 1, 0, 0, 0, 0, 1, 0, 0) 0.572025 0.427975;
   (1, 1, 1, 1, 0, 1, 0, 0, 0, 0, 1, 0, 0) 0.654383 0.345617;
   (0, 0, 0, 0, 1, 1, 0, 0, 0, 0, 1, 0, 0) 0.758016 0.241984;
   (1, 0, 0, 0, 1, 1, 0, 0, 0, 0, 1, 0, 0) 0.513493 0.486507;
   (0, 1, 0, 0, 1, 1, 0, 0, 0, 0, 1, 0, 0) 0.216478 0.783522;
   (1, 1, 0, 0, 1, 1, 0, 0, 0, 0, 1, 0, 0) 0.458639 0.541361;
   (0, 0, 1, 0, 1, 1, 0, 0, 0, 0, 1, 0, 0) 0.738005 0.261995;
   (1, 0, 1, 0, 1, 1, 0, 0, 0, 0, 1, 0, 0) 0.0514312 0.948569;
   (0, 1, 1, 0, 1, 1, 0, 0, 0, 0, 1, 0, 0) 0.439241 0.560759;
   (1, 1, 1, 0, 1, 1, 0, 0, 0, 0, 1, 0, 0) 0.774371 0.225629;
   (0, 0, 0, 1, 1, 1, 0, 0, 0, 0, 1, 0, 0) 0.124896 0.875104;
   (1, 0, 0, 1, 1, 1, 0, 0, 0, 0, 1, 0, 0) 0.248934 0.751066;
   (0, 1, 0, 1, 1, 1, 0, 0, 0, 0, 1, 0, 0) 0.769345 0.230655;
   (1, 1, 0, 1, 1, 1, 0, 0, 0, 0, 1, 0, 0) 0.62539 0.37461;
   (0, 0, 1, 1, 1, 1, 0, 0, 0, 0, 1, 0, 0) 0.498279 0.501721;
   (1, 0, 1, 1, 1, 1, 0, 0, 0, 0, 1, 0, 0) 0.646097 0.353903;
   (0, 1, 1, 1, 1, 1, 0, 0, 0, 0, 1, 0, 0) 0.252102 0.747898;
   (1, 1, 1, 1, 1, 1, 0, 0, 0, 0, 1, 0, 0) 0.539173 0.460827;
   (0, 0, 0, 0, 0, 0, 1, 0, 0, 0, 1, 0, 0) 0.511696 0.488304;
   (1, 0, 0, 0, 0, 0, 1, 0, 0, 0, 1, 0, 0) 0.550174 0.449826;
   (0, 1, 0, 0, 0, 0, 1, 0, 0, 0, 1, 0, 0) 0.65856 0.34144;
   (1, 1, 0, 0, 0, 0, 1, 0, 0, 0, 1, 0, 0) 0.401817 0.598183;
   (0, 0, 1, 0, 0, 0, 1, 0, 0, 0, 1, 0, 0) 0.645631 0.354369;
   (1, 0, 1, 0, 0, 0, 1, 0, 0, 0, 1, 0, 0) 0.560672 0.439328;
   (0, 1, 1, 0, 0, 0, 1, 0, 0, 0, 1, 0, 0) 0.766783 0.233217;
   (1, 1, 1, 0, 0, 0, 1, 0, 0, 0, 1, 0, 0) 0.632051 0.367949;
   (0, 0, 0, 1, 0, 0, 1, 0, 0, 0, 1, 0, 0) 0.557325 0.442675;
   (1, 0, 0, 1, 0, 0, 1, 0, 0, 0, 1, 0, 0) 0.400625 0.599375;
   (0, 1, 0, 1, 0, 0, 1, 0, 0, 0, 1, 0, 0) 0.970407 0.0295931;
   (1, 1, 0, 1, 0, 0, 1, 0, 0, 0, 1, 0, 0) 0.847948 0.152052;
   (0, 0, 1, 1, 0, 0, 1, 0, 0, 0, 1, 0, 0) 0.953939 0.0460613;
   (1, 0, 1, 1, 0, 0, 1, 0, 0, 0, 1, 0, 0) 0.546576 0.453424;
   (0, 1, 1, 1, 0, 0, 1, 0, 0, 0, 1, 0, 0) 0.499498 0.500502;
   (1, 1, 1, 1, 0, 0, 1, 0, 0, 0, 1, 0, 0) 0.790276 0.209724;
   (0, 0, 0, 0, 1, 0, 1, 0, 0, 0, 1, 0, 0) 0.557724 0.442276;
   (1, 0, 0, 0, 1, 0, 1, 0, 0, 0, 1, 0, 0) 0.205056 0.794944;
   (0, 1, 0, 0, 1, 0, 1, 0, 0, 0, 1, 0, 0) 0.93282 0.0671804;
   (1, 1, 0, 0, 1, 0, 1, 0, 0, 0, 1, 0, 0) 0.748153 0.251847;
   (0, 0, 1, 0, 1, 0, 1, 0, 0, 0, 1, 0, 0) 0.528164 0.471836;
   (1, 0, 1, 0, 1, 0, 1, 0, 0, 0, 1, 0, 0) 0.764726 0.235274;
   (0, 1, 1, 0, 1, 0, 1, 0, 0, 0, 1, 0, 0) 0.778197 0.221803;
   (1, 1, 1, 0, 1, 0, 1, 0, 0, 0, 1, 0, 0) 0.194654 0.805346;
   (0, 0, 0, 1, 1, 0, 1, 0, 0, 0, 1, 0, 0) 0.307631 0.692369;
   (1, 0, 0, 1, 1, 0, 1, 0, 0, 0, 1, 0, 0) 0.265453 0.734547;
   (0, 1, 0, 1, 1, 0, 1, 0, 0, 0, 1, 0, 0) 0.417577 0.582423;
   (1, 1, 0, 1, 1, 0, 1, 0, 0, 0, 1, 0, 0) 0.455605 0.544395;
   (0, 0, 1, 1, 1, 0, 1, 0, 0, 0, 1, 0, 0) 0.177399 0.822601;
   (1, 0, 1, 1, 1, 0, 1, 0, 0, 0, 1, 0, 0) 0.501888 0.498112;
   (0, 1, 1, 1, 1, 0, 1, 0, 0, 0, 1, 0, 0) 0.598748 0.401252;
   (1, 1, 1, 1, 1, 0, 1, 0, 0, 0, 1, 0, 0) 0.0966245 0.903375;
   (0, 0, 0, 0, 0, 1, 1, 0, 0, 0, 1, 0, 0) 0.491102 0.508898;
   (1, 0, 0, 0, 0, 1, 1, 0, 0, 0, 1, 0, 0) 0.808746 0.191254;
   (0, 1, 0, 0, 0, 1, 1, 0, 0, 0, 1, 0, 0) 0.450514 0.549486;
   (1, 1, 0, 0, 0, 1, 1, 0, 0, 0, 1, 0, 0) 0.831307 0.168693;
   (0, 0, 1, 0, 0, 1, 1, 0, 0, 0, 1, 0, 0) 0.812645 0.187355;
   (1, 0, 1, 0, 0, 1, 1, 0, 0, 0, 1, 0, 0) 0.439764 0.560236;
   (0, 1, 1, 0, 0, 1, 1, 0, 0, 0, 1, 0, 0) 0.394773 0.605227;
   (1, 1, 1, 0, 0, 1, 1, 0, 0, 0, 1, 0, 0) 0.572624 0.427376;
   (0, 0, 0, 1, 0, 1, 1, 0, 0, 0, 1, 0, 0) 0.431173 0.568827;
   (1, 0, 0, 1, 0, 1, 1, 0, 0, 0, 1, 0, 0) 0.300374 0.699626;
   (0, 1, 0, 1, 0, 1, 1, 0, 0, 0, 1, 0, 0) 0.37804 0.62196;
   (1, 1, 0, 1, 0, 1, 1, 0, 0, 0, 1, 0, 0) 0.698856 0.301144;
   (0, 0, 1, 1, 0, 1, 1, 0, 0, 0, 1, 0, 0) 0.177908 0.822092;
   (1, 0, 1, 1, 0, 1, 1, 0, 0, 0, 1, 0, 0) 0.812949 0.187051;
   (0, 1, 1, 1, 0, 1, 1, 0, 0, 0, 1, 0, 0) 0.575278 0.424722;
   (1, 1, 1, 1, 0, 1, 1, 0, 0, 0, 1, 0, 0) 0.963992 0.0360081;
   (0, 0, 0, 0, 1, 1, 1, 0, 0, 0, 1, 0, 0) 0.778646 0.221354;
   (1, 0, 0, 0, 1, 1, 1, 0, 0, 0, 1, 0, 0) 0.53426 0.46574;
   (0, 1, 0, 0, 1, 1, 1, 0, 0, 0, 1, 0, 0) 0.474708 0.525292;
   (1, 1, 0, 0, 1, 1, 1, 0, 0, 0, 1, 0, 0) 0.551273 0.448727;
   (0, 0, 1, 0, 1, 1, 1, 0, 0, 0, 1, 0, 0) 0.888995 0.111005;
   (1, 0, 1, 0, 1, 1, 1, 0, 0, 0, 1, 0, 0) 0.669114 0.330886;
   (0, 1, 1, 0, 1, 1, 1, 0, 0, 0, 1, 0, 0) 0.51416 0.48584;
   (1, 1, 1, 0, 1, 1, 1, 0, 0, 0, 1, 0, 0) 0.405079 0.594921;
   (0, 0, 0, 1, 1, 1, 1, 0, 0, 0, 1, 0, 0) 0.433386 0.566614;
   (1, 0, 0, 1, 1, 1, 1, 0, 0, 0, 1, 0, 0) 0.699827 0.300173;
   (0, 1, 0, 1, 1, 1, 1, 0, 0, 0, 1, 0, 0) 0.397222 0.602778;
   (1, 1, 0, 1, 1, 1, 1, 0, 0, 0, 1, 0, 0) 0.631773 0.368227;
   (0, 0, 1, 1, 1, 1, 1, 0, 0, 0, 1, 0, 0) 0.810083 0.189917;
   (1, 0, 1, 1, 1, 1, 1, 0, 0, 0, 1, 0, 0) 0.430158 0.569842;
   (0, 1, 1, 1, 1, 1, 1, 0, 0, 0, 1, 0, 0) 0.299887 0.700113;
   (1, 1, 1, 1, 1, 1, 1, 0, 0, 0, 1, 0, 0) 0.5959 0.4041;
   (0, 0, 0, 0, 0, 0, 0, 1, 0, 0, 1, 0, 0) 0.519542 0.480458;
   (1, 0, 0, 0, 0, 0, 0, 1, 0, 0, 1, 0, 0) 0.634639 0.365361;
   (0, 1, 0, 0, 0, 0, 0, 1, 0, 0, 1, 0, 0) 0.489517 0.510483;
   (1, 1, 0, 0, 0, 0, 0, 1, 0, 0, 1, 0, 0) 0.388662 0.611338;
   (0, 0, 1, 0, 0, 0, 0, 1, 0, 0, 1, 0, 0) 0.651093 0.348907;
   (1, 0, 1, 0, 0, 0, 0, 1, 0, 0, 1, 0, 0) 0.0596245 0.940376;
   (0, 1, 1, 0, 0, 0, 0, 1, 0, 0, 1, 0, 0) 0.0995677 0.900432;
   (1, 1, 1, 0, 0, 0, 0, 1, 0, 0, 1, 0, 0) 0.446645 0.553355;
   (0, 0, 0, 1, 0, 0, 0, 1, 0, 0, 1, 0, 0) 0.558376 0.441624;
   (1, 0, 0, 1, 0, 0, 0, 1, 0, 0, 1, 0, 0) 0.505815 0.494185;
   (0, 1, 0, 1, 0, 0, 0, 1, 0, 0, 1, 0, 0) 0.197413 0.802587;
   (1, 1, 0, 1, 0, 0, 0, 1, 0, 0, 1, 0, 0) 0.37468 0.62532;
   (0, 0, 1, 1, 0, 0, 0, 1, 0, 0, 1, 0, 0) 0.726065 0.273935;
   (1, 0, 1, 1, 0, 0, 0, 1, 0, 0, 1, 0, 0) 0.0105171 0.989483;
   (0, 1, 1, 1, 0, 0, 0, 1, 0, 0, 1, 0, 0) 0.636068 0.363932;
   (1, 1, 1, 1, 0, 0, 0, 1, 0, 0, 1, 0, 0) 0.537415 0.462585;
   (0, 0, 0, 0, 1, 0, 0, 1, 0, 0, 1, 0, 0) 0.528337 0.471663;
   (1, 0, 0, 0, 1, 0, 0, 1, 0, 0, 1, 0, 0) 0.451914 0.548086;
   (0, 1, 0, 0, 1, 0, 0, 1, 0, 0, 1, 0, 0) 0.197981 0.802019;
   (1, 1, 0, 0, 1, 0, 0, 1, 0, 0, 1, 0, 0) 0.648662 0.351338;
   (0, 0, 1, 0, 1, 0, 0, 1, 0, 0, 1, 0, 0) 0.525097 0.474903;
   (1, 0, 1, 0, 1, 0, 0, 1, 0, 0, 1, 0, 0) 0.0765038 0.923496;
   (0, 1, 1, 0, 1, 0, 0, 1, 0, 0, 1, 0, 0) 0.470682 0.529318;
   (1, 1, 1, 0, 1, 0, 0, 1, 0, 0, 1, 0, 0) 0.865037 0.134963;
   (0, 0, 0, 1, 1, 0, 0, 1, 0, 0, 1, 0, 0) 0.520758 0.479242;
   (1, 0, 0, 1, 1, 0, 0, 1, 0, 0, 1, 0, 0) 0.962213 0.0377874;
   (0, 1, 0, 1, 1, 0, 0, 1, 0, 0, 1, 0, 0) 0.320946 0.679054;
   (1, 1, 0, 1, 1, 0, 0, 1, 0, 0, 1, 0, 0) 0.737481 0.262519;
   (0, 0, 1, 1, 1, 0, 0, 1, 0, 0, 1, 0, 0) 0.412246 0.587754;
   (1, 0, 1, 1, 1, 0, 0, 1, 0, 0, 1, 0, 0) 0.0573108 0.942689;
   (0, 1, 1, 1, 1, 0, 0, 1, 0, 0, 1, 0, 0) 0.516905 0.483095;
   (1, 1, 1, 1, 1, 0, 0, 1, 0, 0, 1, 0, 0) 0.375976 0.624024;
   (0, 0, 0, 0, 0, 1, 0, 1, 0, 0, 1, 0, 0) 0.17421 0.82579;
   (1, 0, 0, 0, 0, 1, 0, 1, 0, 0, 1, 0, 0) 0.0272564 0.972744;
   (0, 1, 0, 0, 0, 1, 0, 1, 0, 0, 1, 0, 0) 0.533165 0.466835;
   (1, 1, 0, 0, 0, 1, 0, 1, 0, 0, 1, 0, 0) 0.352967 0.647033;
   (0, 0, 1, 0, 0, 1, 0, 1, 0, 0, 1, 0, 0) 0.64642 0.35358;
   (1, 0, 1, 0, 0, 1, 0, 1, 0, 0, 1, 0, 0) 0.988891 0.0111095;
   (0, 1, 1, 0, 0, 1, 0, 1, 0, 0, 1, 0, 0) 0.0518757 0.948124;
   (1, 1, 1, 0, 0, 1, 0, 1, 0, 0, 1, 0, 0) 0.432258 0.567742;
   (0, 0, 0, 1, 0, 1, 0, 1, 0, 0, 1, 0, 0) 0.871846 0.128154;
   (1, 0, 0, 1, 0, 1, 0, 1, 0, 0, 1, 0, 0) 0.640848 0.359152;
   (0, 1, 0, 1, 0, 1, 0, 1, 0, 0, 1, 0, 0) 0.680621 0.319379;
   (1, 1, 0, 1, 0, 1, 0, 1, 0, 0, 1, 0, 0) 0.149273 0.850727;
   (0, 0, 1, 1, 0, 1, 0, 1, 0, 0, 1, 0, 0) 0.499349 0.500651;
   (1, 0, 1, 1, 0, 1, 0, 1, 0, 0, 1, 0, 0) 0.685941 0.314059;
   (0, 1, 1, 1, 0, 1, 0, 1, 0, 0, 1, 0, 0) 0.484733 0.515267;
   (1, 1, 1, 1, 0, 1, 0, 1, 0, 0, 1, 0, 0) 0.52159 0.47841;
   (0, 0, 0, 0, 1, 1, 0, 1, 0, 0, 1, 0, 0) 0.328651 0.671349;
   (1, 0, 0, 0, 1, 1, 0, 1, 0, 0, 1, 0, 0) 0.278808 0.721192;
   (0, 1, 0, 0, 1, 1, 0, 1, 0, 0, 1, 0, 0) 0.204314 0.795686;
   (1, 1, 0, 0, 1, 1, 0, 1, 0, 0, 1, 0, 0) 0.481233 0.518767;
   (0, 0, 1, 0, 1, 1, 0, 1, 0, 0, 1, 0, 0) 0.617779 0.382221;
   (1, 0, 1, 0, 1, 1, 0, 1, 0, 0, 1, 0, 0) 0.582865 0.417135;
   (0, 1, 1, 0, 1, 1, 0, 1, 0, 0, 1, 0, 0) 0.564209 0.435791;
   (1, 1, 1, 0, 1, 1, 0, 1, 0, 0, 1, 0, 0) 0.393957 0.606043;
   (0, 0, 0, 1, 1, 1, 0, 1, 0, 0, 1, 0, 0) 0.667023 0.332977;
   (1, 0, 0, 1, 1, 1, 0, 1, 0, 0, 1, 0, 0) 0.59207 0.40793;
   (0, 1, 0, 1, 1, 1, 0, 1, 0, 0, 1, 0, 0) 0.0883989 0.911601;
   (1, 1, 0, 1, 1, 1, 0, 1, 0, 0, 1, 0, 0) 0.104318 0.895682;
   (0, 0, 1, 1, 1, 1, 0, 1, 0, 0, 1, 0, 0) 0.586231 0.413769;
   (1, 0, 1, 1, 1, 1, 0, 1, 0, 0, 1, 0, 0) 0.502995 0.497005;
   (0, 1, 1, 1, 1, 1, 0, 1, 0, 0, 1, 0, 0) 0.260722 0.739278;
   (1, 1, 1, 1, 1, 1, 0, 1, 0, 0, 1, 0, 0) 0.198861 0.801139;
   (0, 0, 0, 0, 0, 0, 1, 1, 0, 0, 1, 0, 0) 0.703103 0.296897;
   (1, 0, 0, 0, 0, 0, 1, 1, 0, 0, 1, 0, 0) 0.565986 0.434014;
   (0, 1, 0, 0, 0, 0, 1, 1, 0, 0, 1, 0, 0) 0.926862 0.0731384;
   (1, 1, 0, 0, 0, 0, 1, 1, 0, 0, 1, 0, 0) 0.620068 0.379932;
   (0, 0, 1, 0, 0, 0, 1, 1, 0, 0, 1, 0, 0) 0.321434 0.678566;
   (1, 0, 1, 0, 0, 0, 1, 1, 0, 0, 1, 0, 0) 0.649962 0.350038;
   (0, 1, 1, 0, 0, 0, 1, 1, 0, 0, 1, 0, 0) 0.511097 0.488903;
   (1, 1, 1, 0, 0, 0, 1, 1, 0, 0, 1, 0, 0) 0.620661 0.379339;
   (0, 0, 0, 1, 0, 0, 1, 1, 0, 0, 1, 0, 0) 0.607483 0.392517;
   (1, 0, 0, 1, 0, 0, 1, 1, 0, 0, 1, 0, 0) 0.374346 0.625654;
   (0, 1, 0, 1, 0, 0, 1, 1, 0, 0, 1, 0, 0) 0.380258 0.619742;
   (1, 1, 0, 1, 0, 0, 1, 1, 0, 0, 1, 0, 0) 0.966509 0.0334912;
   (0, 0, 1, 1, 0, 0, 1, 1, 0, 0, 1, 0, 0) 0.308986 0.691014;
   (1, 0, 1, 1, 0, 0, 1, 1, 0, 0, 1, 0, 0) 0.660075 0.339925;
   (0, 1, 1, 1, 0, 0, 1, 1, 0, 0, 1, 0, 0) 0.170458 0.829542;
   (1, 1, 1, 1, 0, 0, 1, 1, 0, 0, 1, 0, 0) 0.389811 0.610189;
   (0, 0, 0, 0, 1, 0, 1, 1, 0, 0, 1, 0, 0) 0.621704 0.378296;
   (1, 0, 0, 0, 1, 0, 1, 1, 0, 0, 1, 0, 0) 0.518607 0.481393;
   (0, 1, 0, 0, 1, 0, 1, 1, 0, 0, 1, 0, 0) 0.0128782 0.987122;
   (1, 1, 0, 0, 1, 0, 1, 1, 0, 0, 1, 0, 0) 0.495396 0.504604;
   (0, 0, 1, 0, 1, 0, 1, 1, 0, 0, 1, 0, 0) 0.826983 0.173017;
   (1, 0, 1, 0, 1, 0, 1, 1, 0, 0, 1, 0, 0) 0.0422092 0.957791;
   (0, 1, 1, 0, 1, 0, 1, 1, 0, 0, 1, 0, 0) 0.720927 0.279073;
   (1, 1, 1, 0, 1, 0, 1, 1, 0, 0, 1, 0, 0) 0.647656 0.352344;
   (0, 0, 0, 1, 1, 0, 1, 1, 0, 0, 1, 0, 0) 0.726079 0.273921;
   (1, 0, 0, 1, 1, 0, 1, 1, 0, 0, 1, 0, 0) 0.276008 0.723992;
   (0, 1, 0, 1, 1, 0, 1, 1, 0, 0, 1, 0, 0) 0.687116 0.312884;
   (1, 1, 0, 1, 1, 0, 1, 1, 0, 0, 1, 0, 0) 0.128555 0.871445;
   (0, 0, 1, 1, 1, 0, 1, 1, 0, 0, 1, 0, 0) 0.783401 0.216599;
   (1, 0, 1, 1, 1, 0, 1, 1, 0, 0, 1, 0, 0) 0.137696 0.862304;
   (0, 1, 1, 1, 1, 0, 1, 1, 0, 0, 1, 0, 0) 0.470063 0.529937;
   (1, 1, 1, 1, 1, 0, 1, 1, 0, 0, 1, 0, 0) 0.161487 0.838513;
   (0, 0, 0, 0, 0, 1, 1, 1, 0, 0, 1, 0, 0) 0.697747 0.302253;
   (1, 0, 0, 0, 0, 1, 1, 1, 0, 0, 1, 0, 0) 0.249288 0.750712;
   (0, 1, 0, 0, 0, 1, 1, 1, 0, 0, 1, 0, 0) 0.193953 0.806047;
   (1, 1, 0, 0, 0, 1, 1, 1, 0, 0, 1, 0, 0) 0.70055 0.29945;
   (0, 0, 1, 0, 0, 1, 1, 1, 0, 0, 1, 0, 0) 0.485746 0.514254;
   (1, 0, 1, 0, 0, 1, 1, 1, 0, 0, 1, 0, 0) 0.453629 0.546371;
   (0, 1, 1, 0, 0, 1, 1, 1, 0, 0, 1, 0, 0) 0.922729 0.0772711;
   (1, 1, 1, 0, 0, 1, 1, 1, 0, 0, 1, 0, 0) 0.478587 0.521413;
   (0, 0, 0, 1, 0, 1, 1, 1, 0, 0, 1, 0, 0) 0.490626 0.509374;
   (1, 0, 0, 1, 0, 1, 1, 1, 0, 0, 1, 0, 0) 0.481297 0.518703;
   (0, 1, 0, 1, 0, 1, 1, 1, 0, 0, 1, 0, 0) 0.311041 0.688959;
   (1, 1, 0, 1, 0, 1, 1, 1, 0, 0, 1, 0, 0) 0.744439 0.255561;
   (0, 0, 1, 1, 0, 1, 1, 1, 0, 0, 1, 0, 0) 0.106209 0.893791;
   (1, 0, 1, 1, 0, 1, 1, 1, 0, 0, 1, 0, 0) 0.320155 0.679845;
   (0, 1, 1, 1, 0, 1, 1, 1, 0, 0, 1, 0, 0) 0.109761 0.890239;
   (1, 1, 1, 1, 0, 1, 1, 1, 0, 0, 1, 0, 0) 0.464423 0.535577;
   (0, 0, 0, 0, 1, 1, 1, 1, 0, 0, 1, 0, 0) 0.407973 0.592027;
   (1, 0, 0, 0, 1, 1, 1, 1, 0, 0, 1, 0, 0) 0.899123 0.100877;
   (0, 1, 0, 0, 1, 1, 1, 1, 0, 0, 1, 0, 0) 0.389627 0.610373;
   (1, 1, 0, 0, 1, 1, 1, 1, 0, 0, 1, 0, 0) 0.59584 0.40416;
   (0, 0, 1, 0, 1, 1, 1, 1, 0, 0, 1, 0, 0) 0.088382 0.911618;
   (1, 0, 1, 0, 1, 1, 1, 1, 0, 0, 1, 0, 0) 0.739192 0.260808;
   (0, 1, 1, 0, 1, 1, 1, 1, 0, 0, 1, 0, 0) 0.737976 0.262024;
   (1, 1, 1, 0, 1, 1, 1, 1, 0, 0, 1, 0, 0) 0.791625 0.208375;
   (0, 0, 0, 1, 1, 1, 1, 1, 0, 0, 1, 0, 0) 0.253561 0.746439;
   (1, 0, 0, 1, 1, 1, 1, 1, 0, 0, 1, 0, 0) 0.453128 0.546872;
   (0, 1, 0, 1, 1, 1, 1, 1, 0, 0, 1, 0, 0) 0.843379 0.156621;
   (1, 1, 0, 1, 1, 1, 1, 1, 0, 0, 1, 0, 0) 0.619483 0.380517;
   (0, 0, 1, 1, 1, 1, 1, 1, 0, 0, 1, 0, 0) 0.406568 0.593432;
   (1, 0, 1, 1, 1, 1, 1, 1, 0, 0, 1, 0, 0) 0.51729 0.48271;
   (0, 1, 1, 1, 1, 1, 1, 1, 0, 0, 1, 0, 0) 0.935534 0.0644661;
   (1, 1, 1, 1, 1, 1, 1, 1, 0, 0, 1, 0, 0) 0.506776 0.493224;
   (0, 0, 0, 0, 0, 0, 0, 0, 1, 0, 1, 0, 0) 0.171725 0.828275;
   (1, 0, 0, 0, 0, 0, 0, 0, 1, 0, 1, 0, 0) 0.492106 0.507894;
   (0, 1, 0, 0, 0, 0, 0, 0, 1, 0, 1, 0, 0) 0.935907 0.064093;
   (1, 1, 0, 0, 0, 0, 0, 0, 1, 0, 1, 0, 0) 0.386856 0.613144;
   (0, 0, 1, 0, 0, 0, 0, 0, 1, 0, 1, 0, 0) 0.242524 0.757476;
   (1, 0, 1, 0, 0, 0, 0, 0, 1, 0, 1, 0, 0) 0.3365 0.6635;
   (0, 1, 1, 0, 0, 0, 0, 0, 1, 0, 1, 0, 0) 0.55833 0.44167;
   (1, 1, 1, 0, 0, 0, 0, 0, 1, 0, 1, 0, 0) 0.644214 0.355786;
   (0, 0, 0, 1, 0, 0, 0, 0, 1, 0, 1, 0, 0) 0.974366 0.025634;
   (1, 0, 0, 1, 0, 0, 0, 0, 1, 0, 1, 0, 0) 0.174468 0.825532;
   (0, 1, 0, 1, 0, 0, 0, 0, 1, 0, 1, 0, 0) 0.380838 0.619162;
   (1, 1, 0, 1, 0, 0, 0, 0, 1, 0, 1, 0, 0) 0.33196 0.66804;
   (0, 0, 1, 1, 0, 0, 0, 0, 1, 0, 1, 0, 0) 0.518576 0.481424;
   (1, 0, 1, 1, 0, 0, 0, 0, 1, 0, 1, 0, 0) 0.706461 0.293539;
   (0, 1, 1, 1, 0, 0, 0, 0, 1, 0, 1, 0, 0) 0.0726886 0.927311;
   (1, 1, 1, 1, 0, 0, 0, 0, 1, 0, 1, 0, 0) 0.257592 0.742408;
   (0, 0, 0, 0, 1, 0, 0, 0, 1, 0, 1, 0, 0) 0.971904 0.0280957;
   (1, 0, 0, 0, 1, 0, 0, 0, 1, 0, 1, 0, 0) 0.975302 0.0246979;
   (0, 1, 0, 0, 1, 0, 0, 0, 1, 0, 1, 0, 0) 0.777938 0.222062;
   (1, 1, 0, 0, 1, 0, 0, 0, 1, 0, 1, 0, 0) 0.654387 0.345613;
   (0, 0, 1, 0, 1, 0, 0, 0, 1, 0, 1, 0, 0) 0.517723 0.482277;
   (1, 0, 1, 0, 1, 0, 0, 0, 1, 0, 1, 0, 0) 0.416197 0.583803;
   (0, 1, 1, 0, 1, 0, 0, 0, 1, 0, 1, 0, 0) 0.396523 0.603477;
   (1, 1, 1, 0, 1, 0, 0, 0, 1, 0, 1, 0, 0) 0.531116 0.468884;
   (0, 0, 0, 1, 1, 0, 0, 0, 1, 0, 1, 0, 0) 0.694686 0.305314;
   (1, 0, 0, 1, 1, 0, 0, 0, 1, 0, 1, 0, 0) 0.467899 0.532101;
   (0, 1, 0, 1, 1, 0, 0, 0, 1, 0, 1, 0, 0) 0.884867 0.115133;
   (1, 1, 0, 1, 1, 0, 0, 0, 1, 0, 1, 0, 0) 0.553659 0.446341;
   (0, 0, 1, 1, 1, 0, 0, 0, 1, 0, 1, 0, 0) 0.418416 0.581584;
   (1, 0, 1, 1, 1, 0, 0, 0, 1, 0, 1, 0, 0) 0.451326 0.548674;
   (0, 1, 1, 1, 1, 0, 0, 0, 1, 0, 1, 0, 0) 0.0513005 0.948699;
   (1, 1, 1, 1, 1, 0, 0, 0, 1, 0, 1, 0, 0) 0.14868 0.85132;
   (0, 0, 0, 0, 0, 1, 0, 0, 1, 0, 1, 0, 0) 0.311108 0.688892;
   (1, 0, 0, 0, 0, 1, 0, 0, 1, 0, 1, 0, 0) 0.834148 0.165852;
   (0, 1, 0, 0, 0, 1, 0, 0, 1, 0, 1, 0, 0) 0.598613 0.401387;
   (1, 1, 0, 0, 0, 1, 0, 0, 1, 0, 1, 0, 0) 0.148687 0.851313;
   (0, 0, 1, 0, 0, 1, 0, 0, 1, 0, 1, 0, 0) 0.681024 0.318976;
   (1, 0, 1, 0, 0, 1, 0, 0, 1, 0, 1, 0, 0) 0.39375 0.60625;
   (0, 1, 1, 0, 0, 1, 0, 0, 1, 0, 1, 0, 0) 0.626583 0.373417;
   (1, 1, 1, 0, 0, 1, 0, 0, 1, 0, 1, 0, 0) 0.458617 0.541383;
   (0, 0, 0, 1, 0, 1, 0, 0, 1, 0, 1, 0, 0) 0.580033 0.419967;
   (1, 0, 0, 1, 0, 1, 0, 0, 1, 0, 1, 0, 0) 0.239715 0.760285;
   (0, 1, 0, 1, 0, 1, 0, 0, 1, 0, 1, 0, 0) 0.532184 0.467816;
   (1, 1, 0, 1, 0, 1, 0, 0, 1, 0, 1, 0, 0) 0.840258 0.159742;
   (0, 0, 1, 1, 0, 1, 0, 0, 1, 0, 1, 0, 0) 0.786842 0.213158;
   (1, 0, 1, 1, 0, 1, 0, 0, 1, 0, 1, 0, 0) 0.54581 0.45419;
   (0, 1, 1, 1, 0, 1, 0, 0, 1, 0, 1, 0, 0) 0.788763 0.211237;
   (1, 1, 1, 1, 0, 1, 0, 0, 1, 0, 1, 0, 0) 0.771655 0.228345;
   (0, 0, 0, 0, 1, 1, 0, 0, 1, 0, 1, 0, 0) 0.704619 0.295381;
   (1, 0, 0, 0, 1, 1, 0, 0, 1, 0, 1, 0, 0) 0.354733 0.645267;
   (0, 1, 0, 0, 1, 1, 0, 0, 1, 0, 1, 0, 0) 0.52801 0.47199;
   (1, 1, 0, 0, 1, 1, 0, 0, 1, 0, 1, 0, 0) 0.734213 0.265787;
   (0, 0, 1, 0, 1, 1, 0, 0, 1, 0, 1, 0, 0) 0.553812 0.446188;
   (1, 0, 1, 0, 1, 1, 0, 0, 1, 0, 1, 0, 0) 0.154309 0.845691;
   (0, 1, 1, 0, 1, 1, 0, 0, 1, 0, 1, 0, 0) 0.276075 0.723925;
   (1, 1, 1, 0, 1, 1, 0, 0, 1, 0, 1, 0, 0) 0.44591 0.55409;
   (0, 0, 0, 1, 1, 1, 0, 0, 1, 0, 1, 0, 0) 0.364691 0.635309;
   (1, 0, 0, 1, 1, 1, 0, 0, 1, 0, 1, 0, 0) 0.427764 0.572236;
   (0, 1, 0, 1, 1, 1, 0, 0, 1, 0, 1, 0, 0) 0.231575 0.768425;
   (1, 1, 0, 1, 1, 1, 0, 0, 1, 0, 1, 0, 0) 0.74183 0.25817;
   (0, 0, 1, 1, 1, 1, 0, 0, 1, 0, 1, 0, 0) 0.787602 0.212398;
   (1, 0, 1, 1, 1, 1, 0, 0, 1, 0, 1, 0, 0) 0.760356 0.239644;
   (0, 1, 1, 1, 1, 1, 0, 0, 1, 0, 1, 0, 0) 0.74479 0.25521;
   (1, 1, 1, 1, 1, 1, 0, 0, 1, 0, 1, 0, 0) 0.484493 0.515507;
   (0, 0, 0, 0, 0, 0, 1, 0, 1, 0, 1, 0, 0) 0.420022 0.579978;
   (1, 0, 0, 0, 0, 0, 1, 0, 1, 0, 1, 0, 0) 0.918684 0.0813162;
   (0, 1, 0, 0, 0, 0, 1, 0, 1, 0, 1, 0, 0) 0.052742 0.947258;
   (1, 1, 0, 0, 0, 0, 1, 0, 1, 0, 1, 0, 0) 0.236993 0.763007;
   (0, 0, 1, 0, 0, 0, 1, 0, 1, 0, 1, 0, 0) 0.489717 0.510283;
   (1, 0, 1, 0, 0, 0, 1, 0, 1, 0, 1, 0, 0) 0.982825 0.0171754;
   (0, 1, 1, 0, 0, 0, 1, 0, 1, 0, 1, 0, 0) 0.298639 0.701361;
   (1, 1, 1, 0, 0, 0, 1, 0, 1, 0, 1, 0, 0) 0.665995 0.334005;
   (0, 0, 0, 1, 0, 0, 1, 0, 1, 0, 1, 0, 0) 0.314968 0.685032;
   (1, 0, 0, 1, 0, 0, 1, 0, 1, 0, 1, 0, 0) 0.904042 0.0959585;
   (0, 1, 0, 1, 0, 0, 1, 0, 1, 0, 1, 0, 0) 0.571258 0.428742;
   (1, 1, 0, 1, 0, 0, 1, 0, 1, 0, 1, 0, 0) 0.848073 0.151927;
   (0, 0, 1, 1, 0, 0, 1, 0, 1, 0, 1, 0, 0) 0.667693 0.332307;
   (1, 0, 1, 1, 0, 0, 1, 0, 1, 0, 1, 0, 0) 0.00227294 0.997727;
   (0, 1, 1, 1, 0, 0, 1, 0, 1, 0, 1, 0, 0) 0.500244 0.499756;
   (1, 1, 1, 1, 0, 0, 1, 0, 1, 0, 1, 0, 0) 0.110121 0.889879;
   (0, 0, 0, 0, 1, 0, 1, 0, 1, 0, 1, 0, 0) 0.624834 0.375166;
   (1, 0, 0, 0, 1, 0, 1, 0, 1, 0, 1, 0, 0) 0.575393 0.424607;
   (0, 1, 0, 0, 1, 0, 1, 0, 1, 0, 1, 0, 0) 0.698863 0.301137;
   (1, 1, 0, 0, 1, 0, 1, 0, 1, 0, 1, 0, 0) 0.496872 0.503128;
   (0, 0, 1, 0, 1, 0, 1, 0, 1, 0, 1, 0, 0) 0.53663 0.46337;
   (1, 0, 1, 0, 1, 0, 1, 0, 1, 0, 1, 0, 0) 0.66527 0.33473;
   (0, 1, 1, 0, 1, 0, 1, 0, 1, 0, 1, 0, 0) 0.163797 0.836203;
   (1, 1, 1, 0, 1, 0, 1, 0, 1, 0, 1, 0, 0) 0.735592 0.264408;
   (0, 0, 0, 1, 1, 0, 1, 0, 1, 0, 1, 0, 0) 0.178514 0.821486;
   (1, 0, 0, 1, 1, 0, 1, 0, 1, 0, 1, 0, 0) 0.418509 0.581491;
   (0, 1, 0, 1, 1, 0, 1, 0, 1, 0, 1, 0, 0) 0.797365 0.202635;
   (1, 1, 0, 1, 1, 0, 1, 0, 1, 0, 1, 0, 0) 0.137602 0.862398;
   (0, 0, 1, 1, 1, 0, 1, 0, 1, 0, 1, 0, 0) 0.058218 0.941782;
   (1, 0, 1, 1, 1, 0, 1, 0, 1, 0, 1, 0, 0) 0.437435 0.562565;
   (0, 1, 1, 1, 1, 0, 1, 0, 1, 0, 1, 0, 0) 0.489541 0.510459;
   (1, 1, 1, 1, 1, 0, 1, 0, 1, 0, 1, 0, 0) 0.899467 0.100533;
   (0, 0, 0, 0, 0, 1, 1, 0, 1, 0, 1, 0, 0) 0.199506 0.800494;
   (1, 0, 0, 0, 0, 1, 1, 0, 1, 0, 1, 0, 0) 0.0932523 0.906748;
   (0, 1, 0, 0, 0, 1, 1, 0, 1, 0, 1, 0, 0) 0.179984 0.820016;
   (1, 1, 0, 0, 0, 1, 1, 0, 1, 0, 1, 0, 0) 0.48123 0.51877;
   (0, 0, 1, 0, 0, 1, 1, 0, 1, 0, 1, 0, 0) 0.928785 0.0712152;
   (1, 0, 1, 0, 0, 1, 1, 0, 1, 0, 1, 0, 0) 0.793566 0.206434;
   (0, 1, 1, 0, 0, 1, 1, 0, 1, 0, 1, 0, 0) 0.0718146 0.928185;
   (1, 1, 1, 0, 0, 1, 1, 0, 1, 0, 1, 0, 0) 0.157361 0.842639;
   (0, 0, 0, 1, 0, 1, 1, 0, 1, 0, 1, 0, 0) 0.497122 0.502878;
   (1, 0, 0, 1, 0, 1, 1, 0, 1, 0, 1, 0, 0) 0.363083 0.636917;
   (0, 1, 0, 1, 0, 1, 1, 0, 1, 0, 1, 0, 0) 0.230665 0.769335;
   (1, 1, 0, 1, 0, 1, 1, 0, 1, 0, 1, 0, 0) 0.266706 0.733294;
   (0, 0, 1, 1, 0, 1, 1, 0, 1, 0, 1, 0, 0) 0.351716 0.648284;
   (1, 0, 1, 1, 0, 1, 1, 0, 1, 0, 1, 0, 0) 0.346474 0.653526;
   (0, 1, 1, 1, 0, 1, 1, 0, 1, 0, 1, 0, 0) 0.781476 0.218524;
   (1, 1, 1, 1, 0, 1, 1, 0, 1, 0, 1, 0, 0) 0.489511 0.510489;
   (0, 0, 0, 0, 1, 1, 1, 0, 1, 0, 1, 0, 0) 0.468154 0.531846;
   (1, 0, 0, 0, 1, 1, 1, 0, 1, 0, 1, 0, 0) 0.0444056 0.955594;
   (0, 1, 0, 0, 1, 1, 1, 0, 1, 0, 1, 0, 0) 0.867842 0.132158;
   (1, 1, 0, 0, 1, 1, 1, 0, 1, 0, 1, 0, 0) 0.640678 0.359322;
   (0, 0, 1, 0, 1, 1, 1, 0, 1, 0, 1, 0, 0) 0.503378 0.496622;
   (1, 0, 1, 0, 1, 1, 1, 0, 1, 0, 1, 0, 0) 0.643894 0.356106;
   (0, 1, 1, 0, 1, 1, 1, 0, 1, 0, 1, 0, 0) 0.584176 0.415824;
   (1, 1, 1, 0, 1, 1, 1, 0, 1, 0, 1, 0, 0) 0.493402 0.506598;
   (0, 0, 0, 1, 1, 1, 1, 0, 1, 0, 1, 0, 0) 0.507409 0.492591;
   (1, 0, 0, 1, 1, 1, 1, 0, 1, 0, 1, 0, 0) 0.569192 0.430808;
   (0, 1, 0, 1, 1, 1, 1, 0, 1, 0, 1, 0, 0) 0.145876 0.854124;
   (1, 1, 0, 1, 1, 1, 1, 0, 1, 0, 1, 0, 0) 0.314575 0.685425;
   (0, 0, 1, 1, 1, 1, 1, 0, 1, 0, 1, 0, 0) 0.572693 0.427307;
   (1, 0, 1, 1, 1, 1, 1, 0, 1, 0, 1, 0, 0) 0.609948 0.390052;
   (0, 1, 1, 1, 1, 1, 1, 0, 1, 0, 1, 0, 0) 0.329786 0.670214;
   (1, 1, 1, 1, 1, 1, 1, 0, 1, 0, 1, 0, 0) 0.292973 0.707027;
   (0, 0, 0, 0, 0, 0, 0, 1, 1, 0, 1, 0, 0) 0.896184 0.103816;
   (1, 0, 0, 0, 0, 0, 0, 1, 1, 0, 1, 0, 0) 0.108192 0.891808;
   (0, 1, 0, 0, 0, 0, 0, 1, 1, 0, 1, 0, 0) 0.540361 0.459639;
   (1, 1, 0, 0, 0, 0, 0, 1, 1, 0, 1, 0, 0) 0.428383 0.571617;
   (0, 0, 1, 0, 0, 0, 0, 1, 1, 0, 1, 0, 0) 0.491775 0.508225;
   (1, 0, 1, 0, 0, 0, 0, 1, 1, 0, 1, 0, 0) 0.0740816 0.925918;
   (0, 1, 1, 0, 0, 0, 0, 1, 1, 0, 1, 0, 0) 0.978157 0.0218428;
   (1, 1, 1, 0, 0, 0, 0, 1, 1, 0, 1, 0, 0) 0.441567 0.558433;
   (0, 0, 0, 1, 0, 0, 0, 1, 1, 0, 1, 0, 0) 0.941057 0.0589427;
   (1, 0, 0, 1, 0, 0, 0, 1, 1, 0, 1, 0, 0) 0.208507 0.791493;
   (0, 1, 0, 1, 0, 0, 0, 1, 1, 0, 1, 0, 0) 0.402342 0.597658;
   (1, 1, 0, 1, 0, 0, 0, 1, 1, 0, 1, 0, 0) 0.724312 0.275688;
   (0, 0, 1, 1, 0, 0, 0, 1, 1, 0, 1, 0, 0) 0.110889 0.889111;
   (1, 0, 1, 1, 0, 0, 0, 1, 1, 0, 1, 0, 0) 0.755182 0.244818;
   (0, 1, 1, 1, 0, 0, 0, 1, 1, 0, 1, 0, 0) 0.454932 0.545068;
   (1, 1, 1, 1, 0, 0, 0, 1, 1, 0, 1, 0, 0) 0.171913 0.828087;
   (0, 0, 0, 0, 1, 0, 0, 1, 1, 0, 1, 0, 0) 0.813755 0.186245;
   (1, 0, 0, 0, 1, 0, 0, 1, 1, 0, 1, 0, 0) 0.745812 0.254188;
   (0, 1, 0, 0, 1, 0, 0, 1, 1, 0, 1, 0, 0) 0.79111 0.20889;
   (1, 1, 0, 0, 1, 0, 0, 1, 1, 0, 1, 0, 0) 0.598193 0.401807;
   (0, 0, 1, 0, 1, 0, 0, 1, 1, 0, 1, 0, 0) 0.401151 0.598849;
   (1, 0, 1, 0, 1, 0, 0, 1, 1, 0, 1, 0, 0) 0.641072 0.358928;
   (0, 1, 1, 0, 1, 0, 0, 1, 1, 0, 1, 0, 0) 0.764981 0.235019;
   (1, 1, 1, 0, 1, 0, 0, 1, 1, 0, 1, 0, 0) 0.448365 0.551635;
   (0, 0, 0, 1, 1, 0, 0, 1, 1, 0, 1, 0, 0) 0.582148 0.417852;
   (1, 0, 0, 1, 1, 0, 0, 1, 1, 0, 1, 0, 0) 0.453287 0.546713;
   (0, 1, 0, 1, 1, 0, 0, 1, 1, 0, 1, 0, 0) 0.622447 0.377553;
   (1, 1, 0, 1, 1, 0, 0, 1, 1, 0, 1, 0, 0) 0.659898 0.340102;
   (0, 0, 1, 1, 1, 0, 0, 1, 1, 0, 1, 0, 0) 0.22403 0.77597;
   (1, 0, 1, 1, 1, 0, 0, 1, 1, 0, 1, 0, 0) 0.489168 0.510832;
   (0, 1, 1, 1, 1, 0, 0, 1, 1, 0, 1, 0, 0) 0.410437 0.589563;
   (1, 1, 1, 1, 1, 0, 0, 1, 1, 0, 1, 0, 0) 0.537967 0.462033;
   (0, 0, 0, 0, 0, 1, 0, 1, 1, 0, 1, 0, 0) 0.387721 0.612279;
   (1, 0, 0, 0, 0, 1, 0, 1, 1, 0, 1, 0, 0) 0.150644 0.849356;
   (0, 1, 0, 0, 0, 1, 0, 1, 1, 0, 1, 0, 0) 0.566651 0.433349;
   (1, 1, 0, 0, 0, 1, 0, 1, 1, 0, 1, 0, 0) 0.807599 0.192401;
   (0, 0, 1, 0, 0, 1, 0, 1, 1, 0, 1, 0, 0) 0.26469 0.73531;
   (1, 0, 1, 0, 0, 1, 0, 1, 1, 0, 1, 0, 0) 0.482029 0.517971;
   (0, 1, 1, 0, 0, 1, 0, 1, 1, 0, 1, 0, 0) 0.272721 0.727279;
   (1, 1, 1, 0, 0, 1, 0, 1, 1, 0, 1, 0, 0) 0.649618 0.350382;
   (0, 0, 0, 1, 0, 1, 0, 1, 1, 0, 1, 0, 0) 0.831541 0.168459;
   (1, 0, 0, 1, 0, 1, 0, 1, 1, 0, 1, 0, 0) 0.471303 0.528697;
   (0, 1, 0, 1, 0, 1, 0, 1, 1, 0, 1, 0, 0) 0.514723 0.485277;
   (1, 1, 0, 1, 0, 1, 0, 1, 1, 0, 1, 0, 0) 0.684153 0.315847;
   (0, 0, 1, 1, 0, 1, 0, 1, 1, 0, 1, 0, 0) 0.634816 0.365184;
   (1, 0, 1, 1, 0, 1, 0, 1, 1, 0, 1, 0, 0) 0.45792 0.54208;
   (0, 1, 1, 1, 0, 1, 0, 1, 1, 0, 1, 0, 0) 0.10577 0.89423;
   (1, 1, 1, 1, 0, 1, 0, 1, 1, 0, 1, 0, 0) 0.00385084 0.996149;
   (0, 0, 0, 0, 1, 1, 0, 1, 1, 0, 1, 0, 0) 0.563884 0.436116;
   (1, 0, 0, 0, 1, 1, 0, 1, 1, 0, 1, 0, 0) 0.462466 0.537534;
   (0, 1, 0, 0, 1, 1, 0, 1, 1, 0, 1, 0, 0) 0.384404 0.615596;
   (1, 1, 0, 0, 1, 1, 0, 1, 1, 0, 1, 0, 0) 0.342409 0.657591;
   (0, 0, 1, 0, 1, 1, 0, 1, 1, 0, 1, 0, 0) 0.570868 0.429132;
   (1, 0, 1, 0, 1, 1, 0, 1, 1, 0, 1, 0, 0) 0.144447 0.855553;
   (0, 1, 1, 0, 1, 1, 0, 1, 1, 0, 1, 0, 0) 0.461237 0.538763;
   (1, 1, 1, 0, 1, 1, 0, 1, 1, 0, 1, 0, 0) 0.654306 0.345694;
   (0, 0, 0, 1, 1, 1, 0, 1, 1, 0, 1, 0, 0) 0.362641 0.637359;
   (1, 0, 0, 1, 1, 1, 0, 1, 1, 0, 1, 0, 0) 0.302254 0.697746;
   (0, 1, 0, 1, 1, 1, 0, 1, 1, 0, 1, 0, 0) 0.632801 0.367199;
   (1, 1, 0, 1, 1, 1, 0, 1, 1, 0, 1, 0, 0) 0.399102 0.600898;
   (0, 0, 1, 1, 1, 1, 0, 1, 1, 0, 1, 0, 0) 0.53509 0.46491;
   (1, 0, 1, 1, 1, 1, 0, 1, 1, 0, 1, 0, 0) 0.0161039 0.983896;
   (0, 1, 1, 1, 1, 1, 0, 1, 1, 0, 1, 0, 0) 0.419994 0.580006;
   (1, 1, 1, 1, 1, 1, 0, 1, 1, 0, 1, 0, 0) 0.545076 0.454924;
   (0, 0, 0, 0, 0, 0, 1, 1, 1, 0, 1, 0, 0) 0.97466 0.0253404;
   (1, 0, 0, 0, 0, 0, 1, 1, 1, 0, 1, 0, 0) 0.928736 0.0712638;
   (0, 1, 0, 0, 0, 0, 1, 1, 1, 0, 1, 0, 0) 0.345153 0.654847;
   (1, 1, 0, 0, 0, 0, 1, 1, 1, 0, 1, 0, 0) 0.502985 0.497015;
   (0, 0, 1, 0, 0, 0, 1, 1, 1, 0, 1, 0, 0) 0.374606 0.625394;
   (1, 0, 1, 0, 0, 0, 1, 1, 1, 0, 1, 0, 0) 0.498969 0.501031;
   (0, 1, 1, 0, 0, 0, 1, 1, 1, 0, 1, 0, 0) 0.26225 0.73775;
   (1, 1, 1, 0, 0, 0, 1, 1, 1, 0, 1, 0, 0) 0.481251 0.518749;
   (0, 0, 0, 1, 0, 0, 1, 1, 1, 0, 1, 0, 0) 0.489268 0.510732;
   (1, 0, 0, 1, 0, 0, 1, 1, 1, 0, 1, 0, 0) 0.481746 0.518254;
   (0, 1, 0, 1, 0, 0, 1, 1, 1, 0, 1, 0, 0) 0.866014 0.133986;
   (1, 1, 0, 1, 0, 0, 1, 1, 1, 0, 1, 0, 0) 0.362567 0.637433;
   (0, 0, 1, 1, 0, 0, 1, 1, 1, 0, 1, 0, 0) 0.967872 0.0321281;
   (1, 0, 1, 1, 0, 0, 1, 1, 1, 0, 1, 0, 0) 0.460684 0.539316;
   (0, 1, 1, 1, 0, 0, 1, 1, 1, 0, 1, 0, 0) 0.498432 0.501568;
   (1, 1, 1, 1, 0, 0, 1, 1, 1, 0, 1, 0, 0) 0.687918 0.312082;
   (0, 0, 0, 0, 1, 0, 1, 1, 1, 0, 1, 0, 0) 0.671917 0.328083;
